digraph Tree {
node [shape=box] ;
0 [label="X[0] <= 7.5\ngini = 0.881\nsamples = 5996\nvalue = [833, 1367, 534, 289, 246, 543, 376, 405, 550, 352\n501]"] ;
1 [label="X[3] <= 5.5\ngini = 0.851\nsamples = 3914\nvalue = [756, 1086, 130, 205, 170, 382, 248, 261, 312, 171\n193]"] ;
0 -> 1 [labeldistance=2.5, labelangle=45, headlabel="True"] ;
2 [label="X[1] <= 3.5\ngini = 0.82\nsamples = 2392\nvalue = [596, 726, 35, 131, 112, 212, 136, 141, 152, 76, 75]"] ;
1 -> 2 ;
3 [label="X[0] <= 1.5\ngini = 0.769\nsamples = 984\nvalue = [325, 318, 7, 55, 40, 74, 48, 42, 42, 18, 15]"] ;
2 -> 3 ;
4 [label="X[1] <= 0.5\ngini = 0.718\nsamples = 357\nvalue = [153, 106, 3, 17, 12, 17, 16, 12, 8, 8, 5]"] ;
3 -> 4 ;
5 [label="X[3] <= 2.5\ngini = 0.639\nsamples = 125\nvalue = [69, 27, 1, 6, 1, 8, 3, 5, 2, 2, 1]"] ;
4 -> 5 ;
6 [label="X[4] <= 3.5\ngini = 0.687\nsamples = 84\nvalue = [40, 23, 1, 6, 0, 4, 3, 4, 1, 1, 1]"] ;
5 -> 6 ;
7 [label="X[2] <= 8.0\ngini = 0.611\nsamples = 56\nvalue = [32, 13, 0, 2, 0, 2, 1, 4, 1, 1, 0]"] ;
6 -> 7 ;
8 [label="X[2] <= 3.5\ngini = 0.599\nsamples = 55\nvalue = [32, 13, 0, 2, 0, 2, 1, 3, 1, 1, 0]"] ;
7 -> 8 ;
9 [label="X[2] <= 0.5\ngini = 0.618\nsamples = 46\nvalue = [25, 13, 0, 1, 0, 1, 1, 3, 1, 1, 0]"] ;
8 -> 9 ;
10 [label="X[4] <= 1.5\ngini = 0.417\nsamples = 22\nvalue = [16, 5, 0, 0, 0, 0, 0, 1, 0, 0, 0]"] ;
9 -> 10 ;
11 [label="X[4] <= 0.5\ngini = 0.491\nsamples = 17\nvalue = [11, 5, 0, 0, 0, 0, 0, 1, 0, 0, 0]"] ;
10 -> 11 ;
12 [label="X[0] <= 0.5\ngini = 0.278\nsamples = 6\nvalue = [5, 1, 0, 0, 0, 0, 0, 0, 0, 0, 0]"] ;
11 -> 12 ;
13 [label="gini = 0.0\nsamples = 5\nvalue = [5, 0, 0, 0, 0, 0, 0, 0, 0, 0, 0]"] ;
12 -> 13 ;
14 [label="gini = 0.0\nsamples = 1\nvalue = [0, 1, 0, 0, 0, 0, 0, 0, 0, 0, 0]"] ;
12 -> 14 ;
15 [label="X[3] <= 0.5\ngini = 0.562\nsamples = 11\nvalue = [6, 4, 0, 0, 0, 0, 0, 1, 0, 0, 0]"] ;
11 -> 15 ;
16 [label="X[0] <= 0.5\ngini = 0.48\nsamples = 5\nvalue = [2, 3, 0, 0, 0, 0, 0, 0, 0, 0, 0]"] ;
15 -> 16 ;
17 [label="gini = 0.5\nsamples = 2\nvalue = [1, 1, 0, 0, 0, 0, 0, 0, 0, 0, 0]"] ;
16 -> 17 ;
18 [label="gini = 0.444\nsamples = 3\nvalue = [1, 2, 0, 0, 0, 0, 0, 0, 0, 0, 0]"] ;
16 -> 18 ;
19 [label="X[0] <= 0.5\ngini = 0.5\nsamples = 6\nvalue = [4, 1, 0, 0, 0, 0, 0, 1, 0, 0, 0]"] ;
15 -> 19 ;
20 [label="gini = 0.5\nsamples = 2\nvalue = [1, 1, 0, 0, 0, 0, 0, 0, 0, 0, 0]"] ;
19 -> 20 ;
21 [label="gini = 0.375\nsamples = 4\nvalue = [3, 0, 0, 0, 0, 0, 0, 1, 0, 0, 0]"] ;
19 -> 21 ;
22 [label="gini = 0.0\nsamples = 5\nvalue = [5, 0, 0, 0, 0, 0, 0, 0, 0, 0, 0]"] ;
10 -> 22 ;
23 [label="X[4] <= 0.5\ngini = 0.733\nsamples = 24\nvalue = [9, 8, 0, 1, 0, 1, 1, 2, 1, 1, 0]"] ;
9 -> 23 ;
24 [label="X[3] <= 0.5\ngini = 0.72\nsamples = 5\nvalue = [2, 0, 0, 0, 0, 1, 0, 0, 1, 1, 0]"] ;
23 -> 24 ;
25 [label="gini = 0.0\nsamples = 1\nvalue = [1, 0, 0, 0, 0, 0, 0, 0, 0, 0, 0]"] ;
24 -> 25 ;
26 [label="X[0] <= 0.5\ngini = 0.75\nsamples = 4\nvalue = [1, 0, 0, 0, 0, 1, 0, 0, 1, 1, 0]"] ;
24 -> 26 ;
27 [label="gini = 0.5\nsamples = 2\nvalue = [1, 0, 0, 0, 0, 0, 0, 0, 1, 0, 0]"] ;
26 -> 27 ;
28 [label="gini = 0.5\nsamples = 2\nvalue = [0, 0, 0, 0, 0, 1, 0, 0, 0, 1, 0]"] ;
26 -> 28 ;
29 [label="X[4] <= 2.5\ngini = 0.67\nsamples = 19\nvalue = [7, 8, 0, 1, 0, 0, 1, 2, 0, 0, 0]"] ;
23 -> 29 ;
30 [label="X[2] <= 1.5\ngini = 0.644\nsamples = 17\nvalue = [7, 7, 0, 1, 0, 0, 0, 2, 0, 0, 0]"] ;
29 -> 30 ;
31 [label="X[3] <= 0.5\ngini = 0.612\nsamples = 14\nvalue = [5, 7, 0, 1, 0, 0, 0, 1, 0, 0, 0]"] ;
30 -> 31 ;
32 [label="X[0] <= 0.5\ngini = 0.688\nsamples = 8\nvalue = [3, 3, 0, 1, 0, 0, 0, 1, 0, 0, 0]"] ;
31 -> 32 ;
33 [label="gini = 0.444\nsamples = 3\nvalue = [1, 2, 0, 0, 0, 0, 0, 0, 0, 0, 0]"] ;
32 -> 33 ;
34 [label="gini = 0.72\nsamples = 5\nvalue = [2, 1, 0, 1, 0, 0, 0, 1, 0, 0, 0]"] ;
32 -> 34 ;
35 [label="X[3] <= 1.5\ngini = 0.444\nsamples = 6\nvalue = [2, 4, 0, 0, 0, 0, 0, 0, 0, 0, 0]"] ;
31 -> 35 ;
36 [label="gini = 0.375\nsamples = 4\nvalue = [1, 3, 0, 0, 0, 0, 0, 0, 0, 0, 0]"] ;
35 -> 36 ;
37 [label="gini = 0.5\nsamples = 2\nvalue = [1, 1, 0, 0, 0, 0, 0, 0, 0, 0, 0]"] ;
35 -> 37 ;
38 [label="X[3] <= 0.5\ngini = 0.444\nsamples = 3\nvalue = [2, 0, 0, 0, 0, 0, 0, 1, 0, 0, 0]"] ;
30 -> 38 ;
39 [label="gini = 0.0\nsamples = 2\nvalue = [2, 0, 0, 0, 0, 0, 0, 0, 0, 0, 0]"] ;
38 -> 39 ;
40 [label="gini = 0.0\nsamples = 1\nvalue = [0, 0, 0, 0, 0, 0, 0, 1, 0, 0, 0]"] ;
38 -> 40 ;
41 [label="X[0] <= 0.5\ngini = 0.5\nsamples = 2\nvalue = [0, 1, 0, 0, 0, 0, 1, 0, 0, 0, 0]"] ;
29 -> 41 ;
42 [label="gini = 0.0\nsamples = 1\nvalue = [0, 0, 0, 0, 0, 0, 1, 0, 0, 0, 0]"] ;
41 -> 42 ;
43 [label="gini = 0.0\nsamples = 1\nvalue = [0, 1, 0, 0, 0, 0, 0, 0, 0, 0, 0]"] ;
41 -> 43 ;
44 [label="X[2] <= 5.5\ngini = 0.37\nsamples = 9\nvalue = [7, 0, 0, 1, 0, 1, 0, 0, 0, 0, 0]"] ;
8 -> 44 ;
45 [label="X[4] <= 2.0\ngini = 0.278\nsamples = 6\nvalue = [5, 0, 0, 1, 0, 0, 0, 0, 0, 0, 0]"] ;
44 -> 45 ;
46 [label="X[0] <= 0.5\ngini = 0.444\nsamples = 3\nvalue = [2, 0, 0, 1, 0, 0, 0, 0, 0, 0, 0]"] ;
45 -> 46 ;
47 [label="X[3] <= 0.5\ngini = 0.5\nsamples = 2\nvalue = [1, 0, 0, 1, 0, 0, 0, 0, 0, 0, 0]"] ;
46 -> 47 ;
48 [label="gini = 0.0\nsamples = 1\nvalue = [0, 0, 0, 1, 0, 0, 0, 0, 0, 0, 0]"] ;
47 -> 48 ;
49 [label="gini = 0.0\nsamples = 1\nvalue = [1, 0, 0, 0, 0, 0, 0, 0, 0, 0, 0]"] ;
47 -> 49 ;
50 [label="gini = 0.0\nsamples = 1\nvalue = [1, 0, 0, 0, 0, 0, 0, 0, 0, 0, 0]"] ;
46 -> 50 ;
51 [label="gini = 0.0\nsamples = 3\nvalue = [3, 0, 0, 0, 0, 0, 0, 0, 0, 0, 0]"] ;
45 -> 51 ;
52 [label="X[4] <= 2.0\ngini = 0.444\nsamples = 3\nvalue = [2, 0, 0, 0, 0, 1, 0, 0, 0, 0, 0]"] ;
44 -> 52 ;
53 [label="gini = 0.0\nsamples = 2\nvalue = [2, 0, 0, 0, 0, 0, 0, 0, 0, 0, 0]"] ;
52 -> 53 ;
54 [label="gini = 0.0\nsamples = 1\nvalue = [0, 0, 0, 0, 0, 1, 0, 0, 0, 0, 0]"] ;
52 -> 54 ;
55 [label="gini = 0.0\nsamples = 1\nvalue = [0, 0, 0, 0, 0, 0, 0, 1, 0, 0, 0]"] ;
7 -> 55 ;
56 [label="X[3] <= 0.5\ngini = 0.758\nsamples = 28\nvalue = [8, 10, 1, 4, 0, 2, 2, 0, 0, 0, 1]"] ;
6 -> 56 ;
57 [label="X[2] <= 3.0\ngini = 0.582\nsamples = 14\nvalue = [4, 8, 0, 0, 0, 1, 1, 0, 0, 0, 0]"] ;
56 -> 57 ;
58 [label="X[4] <= 6.5\ngini = 0.542\nsamples = 12\nvalue = [4, 7, 0, 0, 0, 1, 0, 0, 0, 0, 0]"] ;
57 -> 58 ;
59 [label="X[0] <= 0.5\ngini = 0.444\nsamples = 9\nvalue = [3, 6, 0, 0, 0, 0, 0, 0, 0, 0, 0]"] ;
58 -> 59 ;
60 [label="gini = 0.0\nsamples = 1\nvalue = [0, 1, 0, 0, 0, 0, 0, 0, 0, 0, 0]"] ;
59 -> 60 ;
61 [label="X[4] <= 5.5\ngini = 0.469\nsamples = 8\nvalue = [3, 5, 0, 0, 0, 0, 0, 0, 0, 0, 0]"] ;
59 -> 61 ;
62 [label="X[2] <= 0.5\ngini = 0.49\nsamples = 7\nvalue = [3, 4, 0, 0, 0, 0, 0, 0, 0, 0, 0]"] ;
61 -> 62 ;
63 [label="gini = 0.444\nsamples = 3\nvalue = [1, 2, 0, 0, 0, 0, 0, 0, 0, 0, 0]"] ;
62 -> 63 ;
64 [label="X[4] <= 4.5\ngini = 0.5\nsamples = 4\nvalue = [2, 2, 0, 0, 0, 0, 0, 0, 0, 0, 0]"] ;
62 -> 64 ;
65 [label="gini = 0.5\nsamples = 2\nvalue = [1, 1, 0, 0, 0, 0, 0, 0, 0, 0, 0]"] ;
64 -> 65 ;
66 [label="gini = 0.5\nsamples = 2\nvalue = [1, 1, 0, 0, 0, 0, 0, 0, 0, 0, 0]"] ;
64 -> 66 ;
67 [label="gini = 0.0\nsamples = 1\nvalue = [0, 1, 0, 0, 0, 0, 0, 0, 0, 0, 0]"] ;
61 -> 67 ;
68 [label="X[2] <= 1.5\ngini = 0.667\nsamples = 3\nvalue = [1, 1, 0, 0, 0, 1, 0, 0, 0, 0, 0]"] ;
58 -> 68 ;
69 [label="gini = 0.0\nsamples = 1\nvalue = [0, 0, 0, 0, 0, 1, 0, 0, 0, 0, 0]"] ;
68 -> 69 ;
70 [label="gini = 0.5\nsamples = 2\nvalue = [1, 1, 0, 0, 0, 0, 0, 0, 0, 0, 0]"] ;
68 -> 70 ;
71 [label="X[2] <= 7.0\ngini = 0.5\nsamples = 2\nvalue = [0, 1, 0, 0, 0, 0, 1, 0, 0, 0, 0]"] ;
57 -> 71 ;
72 [label="gini = 0.0\nsamples = 1\nvalue = [0, 0, 0, 0, 0, 0, 1, 0, 0, 0, 0]"] ;
71 -> 72 ;
73 [label="gini = 0.0\nsamples = 1\nvalue = [0, 1, 0, 0, 0, 0, 0, 0, 0, 0, 0]"] ;
71 -> 73 ;
74 [label="X[4] <= 4.5\ngini = 0.796\nsamples = 14\nvalue = [4, 2, 1, 4, 0, 1, 1, 0, 0, 0, 1]"] ;
56 -> 74 ;
75 [label="X[2] <= 2.0\ngini = 0.75\nsamples = 4\nvalue = [0, 0, 1, 1, 0, 1, 0, 0, 0, 0, 1]"] ;
74 -> 75 ;
76 [label="gini = 0.5\nsamples = 2\nvalue = [0, 0, 0, 1, 0, 1, 0, 0, 0, 0, 0]"] ;
75 -> 76 ;
77 [label="gini = 0.5\nsamples = 2\nvalue = [0, 0, 1, 0, 0, 0, 0, 0, 0, 0, 1]"] ;
75 -> 77 ;
78 [label="X[2] <= 2.0\ngini = 0.7\nsamples = 10\nvalue = [4, 2, 0, 3, 0, 0, 1, 0, 0, 0, 0]"] ;
74 -> 78 ;
79 [label="X[4] <= 5.5\ngini = 0.571\nsamples = 7\nvalue = [4, 1, 0, 2, 0, 0, 0, 0, 0, 0, 0]"] ;
78 -> 79 ;
80 [label="gini = 0.0\nsamples = 2\nvalue = [2, 0, 0, 0, 0, 0, 0, 0, 0, 0, 0]"] ;
79 -> 80 ;
81 [label="X[0] <= 0.5\ngini = 0.64\nsamples = 5\nvalue = [2, 1, 0, 2, 0, 0, 0, 0, 0, 0, 0]"] ;
79 -> 81 ;
82 [label="X[4] <= 7.0\ngini = 0.625\nsamples = 4\nvalue = [2, 1, 0, 1, 0, 0, 0, 0, 0, 0, 0]"] ;
81 -> 82 ;
83 [label="X[3] <= 1.5\ngini = 0.5\nsamples = 2\nvalue = [1, 1, 0, 0, 0, 0, 0, 0, 0, 0, 0]"] ;
82 -> 83 ;
84 [label="gini = 0.0\nsamples = 1\nvalue = [0, 1, 0, 0, 0, 0, 0, 0, 0, 0, 0]"] ;
83 -> 84 ;
85 [label="gini = 0.0\nsamples = 1\nvalue = [1, 0, 0, 0, 0, 0, 0, 0, 0, 0, 0]"] ;
83 -> 85 ;
86 [label="X[2] <= 0.5\ngini = 0.5\nsamples = 2\nvalue = [1, 0, 0, 1, 0, 0, 0, 0, 0, 0, 0]"] ;
82 -> 86 ;
87 [label="gini = 0.0\nsamples = 1\nvalue = [0, 0, 0, 1, 0, 0, 0, 0, 0, 0, 0]"] ;
86 -> 87 ;
88 [label="gini = 0.0\nsamples = 1\nvalue = [1, 0, 0, 0, 0, 0, 0, 0, 0, 0, 0]"] ;
86 -> 88 ;
89 [label="gini = 0.0\nsamples = 1\nvalue = [0, 0, 0, 1, 0, 0, 0, 0, 0, 0, 0]"] ;
81 -> 89 ;
90 [label="X[3] <= 1.5\ngini = 0.667\nsamples = 3\nvalue = [0, 1, 0, 1, 0, 0, 1, 0, 0, 0, 0]"] ;
78 -> 90 ;
91 [label="X[0] <= 0.5\ngini = 0.5\nsamples = 2\nvalue = [0, 1, 0, 1, 0, 0, 0, 0, 0, 0, 0]"] ;
90 -> 91 ;
92 [label="gini = 0.0\nsamples = 1\nvalue = [0, 0, 0, 1, 0, 0, 0, 0, 0, 0, 0]"] ;
91 -> 92 ;
93 [label="gini = 0.0\nsamples = 1\nvalue = [0, 1, 0, 0, 0, 0, 0, 0, 0, 0, 0]"] ;
91 -> 93 ;
94 [label="gini = 0.0\nsamples = 1\nvalue = [0, 0, 0, 0, 0, 0, 1, 0, 0, 0, 0]"] ;
90 -> 94 ;
95 [label="X[2] <= 8.0\ngini = 0.478\nsamples = 41\nvalue = [29, 4, 0, 0, 1, 4, 0, 1, 1, 1, 0]"] ;
5 -> 95 ;
96 [label="X[2] <= 3.5\ngini = 0.452\nsamples = 40\nvalue = [29, 4, 0, 0, 1, 4, 0, 1, 1, 0, 0]"] ;
95 -> 96 ;
97 [label="X[3] <= 3.5\ngini = 0.408\nsamples = 33\nvalue = [25, 1, 0, 0, 1, 4, 0, 1, 1, 0, 0]"] ;
96 -> 97 ;
98 [label="X[2] <= 1.5\ngini = 0.568\nsamples = 9\nvalue = [5, 0, 0, 0, 0, 3, 0, 0, 1, 0, 0]"] ;
97 -> 98 ;
99 [label="X[2] <= 0.5\ngini = 0.469\nsamples = 8\nvalue = [5, 0, 0, 0, 0, 3, 0, 0, 0, 0, 0]"] ;
98 -> 99 ;
100 [label="X[4] <= 3.5\ngini = 0.48\nsamples = 5\nvalue = [2, 0, 0, 0, 0, 3, 0, 0, 0, 0, 0]"] ;
99 -> 100 ;
101 [label="gini = 0.0\nsamples = 2\nvalue = [0, 0, 0, 0, 0, 2, 0, 0, 0, 0, 0]"] ;
100 -> 101 ;
102 [label="gini = 0.444\nsamples = 3\nvalue = [2, 0, 0, 0, 0, 1, 0, 0, 0, 0, 0]"] ;
100 -> 102 ;
103 [label="gini = 0.0\nsamples = 3\nvalue = [3, 0, 0, 0, 0, 0, 0, 0, 0, 0, 0]"] ;
99 -> 103 ;
104 [label="gini = 0.0\nsamples = 1\nvalue = [0, 0, 0, 0, 0, 0, 0, 0, 1, 0, 0]"] ;
98 -> 104 ;
105 [label="X[3] <= 4.5\ngini = 0.299\nsamples = 24\nvalue = [20, 1, 0, 0, 1, 1, 0, 1, 0, 0, 0]"] ;
97 -> 105 ;
106 [label="X[2] <= 0.5\ngini = 0.422\nsamples = 16\nvalue = [12, 1, 0, 0, 1, 1, 0, 1, 0, 0, 0]"] ;
105 -> 106 ;
107 [label="X[4] <= 0.5\ngini = 0.5\nsamples = 6\nvalue = [4, 0, 0, 0, 1, 0, 0, 1, 0, 0, 0]"] ;
106 -> 107 ;
108 [label="gini = 0.0\nsamples = 1\nvalue = [0, 0, 0, 0, 1, 0, 0, 0, 0, 0, 0]"] ;
107 -> 108 ;
109 [label="X[4] <= 2.5\ngini = 0.32\nsamples = 5\nvalue = [4, 0, 0, 0, 0, 0, 0, 1, 0, 0, 0]"] ;
107 -> 109 ;
110 [label="X[0] <= 0.5\ngini = 0.5\nsamples = 2\nvalue = [1, 0, 0, 0, 0, 0, 0, 1, 0, 0, 0]"] ;
109 -> 110 ;
111 [label="gini = 0.0\nsamples = 1\nvalue = [0, 0, 0, 0, 0, 0, 0, 1, 0, 0, 0]"] ;
110 -> 111 ;
112 [label="gini = 0.0\nsamples = 1\nvalue = [1, 0, 0, 0, 0, 0, 0, 0, 0, 0, 0]"] ;
110 -> 112 ;
113 [label="gini = 0.0\nsamples = 3\nvalue = [3, 0, 0, 0, 0, 0, 0, 0, 0, 0, 0]"] ;
109 -> 113 ;
114 [label="X[4] <= 2.0\ngini = 0.34\nsamples = 10\nvalue = [8, 1, 0, 0, 0, 1, 0, 0, 0, 0, 0]"] ;
106 -> 114 ;
115 [label="gini = 0.0\nsamples = 7\nvalue = [7, 0, 0, 0, 0, 0, 0, 0, 0, 0, 0]"] ;
114 -> 115 ;
116 [label="X[4] <= 3.5\ngini = 0.667\nsamples = 3\nvalue = [1, 1, 0, 0, 0, 1, 0, 0, 0, 0, 0]"] ;
114 -> 116 ;
117 [label="gini = 0.0\nsamples = 1\nvalue = [0, 1, 0, 0, 0, 0, 0, 0, 0, 0, 0]"] ;
116 -> 117 ;
118 [label="X[4] <= 5.0\ngini = 0.5\nsamples = 2\nvalue = [1, 0, 0, 0, 0, 1, 0, 0, 0, 0, 0]"] ;
116 -> 118 ;
119 [label="gini = 0.0\nsamples = 1\nvalue = [0, 0, 0, 0, 0, 1, 0, 0, 0, 0, 0]"] ;
118 -> 119 ;
120 [label="gini = 0.0\nsamples = 1\nvalue = [1, 0, 0, 0, 0, 0, 0, 0, 0, 0, 0]"] ;
118 -> 120 ;
121 [label="gini = 0.0\nsamples = 8\nvalue = [8, 0, 0, 0, 0, 0, 0, 0, 0, 0, 0]"] ;
105 -> 121 ;
122 [label="X[2] <= 5.0\ngini = 0.49\nsamples = 7\nvalue = [4, 3, 0, 0, 0, 0, 0, 0, 0, 0, 0]"] ;
96 -> 122 ;
123 [label="gini = 0.0\nsamples = 2\nvalue = [0, 2, 0, 0, 0, 0, 0, 0, 0, 0, 0]"] ;
122 -> 123 ;
124 [label="X[4] <= 0.5\ngini = 0.32\nsamples = 5\nvalue = [4, 1, 0, 0, 0, 0, 0, 0, 0, 0, 0]"] ;
122 -> 124 ;
125 [label="gini = 0.0\nsamples = 1\nvalue = [0, 1, 0, 0, 0, 0, 0, 0, 0, 0, 0]"] ;
124 -> 125 ;
126 [label="gini = 0.0\nsamples = 4\nvalue = [4, 0, 0, 0, 0, 0, 0, 0, 0, 0, 0]"] ;
124 -> 126 ;
127 [label="gini = 0.0\nsamples = 1\nvalue = [0, 0, 0, 0, 0, 0, 0, 0, 0, 1, 0]"] ;
95 -> 127 ;
128 [label="X[2] <= 3.5\ngini = 0.741\nsamples = 232\nvalue = [84, 79, 2, 11, 11, 9, 13, 7, 6, 6, 4]"] ;
4 -> 128 ;
129 [label="X[0] <= 0.5\ngini = 0.743\nsamples = 140\nvalue = [57, 39, 2, 4, 7, 4, 11, 4, 5, 3, 4]"] ;
128 -> 129 ;
130 [label="X[4] <= 6.0\ngini = 0.582\nsamples = 38\nvalue = [23, 8, 0, 1, 1, 0, 2, 2, 0, 0, 1]"] ;
129 -> 130 ;
131 [label="X[1] <= 1.5\ngini = 0.556\nsamples = 31\nvalue = [20, 4, 0, 1, 1, 0, 2, 2, 0, 0, 1]"] ;
130 -> 131 ;
132 [label="X[2] <= 1.5\ngini = 0.488\nsamples = 23\nvalue = [16, 3, 0, 1, 1, 0, 0, 2, 0, 0, 0]"] ;
131 -> 132 ;
133 [label="X[4] <= 4.5\ngini = 0.42\nsamples = 20\nvalue = [15, 1, 0, 1, 1, 0, 0, 2, 0, 0, 0]"] ;
132 -> 133 ;
134 [label="X[2] <= 0.5\ngini = 0.328\nsamples = 16\nvalue = [13, 1, 0, 1, 0, 0, 0, 1, 0, 0, 0]"] ;
133 -> 134 ;
135 [label="X[4] <= 0.5\ngini = 0.153\nsamples = 12\nvalue = [11, 1, 0, 0, 0, 0, 0, 0, 0, 0, 0]"] ;
134 -> 135 ;
136 [label="X[3] <= 2.0\ngini = 0.5\nsamples = 2\nvalue = [1, 1, 0, 0, 0, 0, 0, 0, 0, 0, 0]"] ;
135 -> 136 ;
137 [label="gini = 0.0\nsamples = 1\nvalue = [0, 1, 0, 0, 0, 0, 0, 0, 0, 0, 0]"] ;
136 -> 137 ;
138 [label="gini = 0.0\nsamples = 1\nvalue = [1, 0, 0, 0, 0, 0, 0, 0, 0, 0, 0]"] ;
136 -> 138 ;
139 [label="gini = 0.0\nsamples = 10\nvalue = [10, 0, 0, 0, 0, 0, 0, 0, 0, 0, 0]"] ;
135 -> 139 ;
140 [label="X[3] <= 1.5\ngini = 0.625\nsamples = 4\nvalue = [2, 0, 0, 1, 0, 0, 0, 1, 0, 0, 0]"] ;
134 -> 140 ;
141 [label="X[3] <= 0.5\ngini = 0.444\nsamples = 3\nvalue = [2, 0, 0, 0, 0, 0, 0, 1, 0, 0, 0]"] ;
140 -> 141 ;
142 [label="gini = 0.0\nsamples = 1\nvalue = [1, 0, 0, 0, 0, 0, 0, 0, 0, 0, 0]"] ;
141 -> 142 ;
143 [label="gini = 0.5\nsamples = 2\nvalue = [1, 0, 0, 0, 0, 0, 0, 1, 0, 0, 0]"] ;
141 -> 143 ;
144 [label="gini = 0.0\nsamples = 1\nvalue = [0, 0, 0, 1, 0, 0, 0, 0, 0, 0, 0]"] ;
140 -> 144 ;
145 [label="X[3] <= 0.5\ngini = 0.625\nsamples = 4\nvalue = [2, 0, 0, 0, 1, 0, 0, 1, 0, 0, 0]"] ;
133 -> 145 ;
146 [label="gini = 0.0\nsamples = 1\nvalue = [0, 0, 0, 0, 0, 0, 0, 1, 0, 0, 0]"] ;
145 -> 146 ;
147 [label="X[3] <= 2.5\ngini = 0.444\nsamples = 3\nvalue = [2, 0, 0, 0, 1, 0, 0, 0, 0, 0, 0]"] ;
145 -> 147 ;
148 [label="gini = 0.0\nsamples = 2\nvalue = [2, 0, 0, 0, 0, 0, 0, 0, 0, 0, 0]"] ;
147 -> 148 ;
149 [label="gini = 0.0\nsamples = 1\nvalue = [0, 0, 0, 0, 1, 0, 0, 0, 0, 0, 0]"] ;
147 -> 149 ;
150 [label="X[3] <= 0.5\ngini = 0.444\nsamples = 3\nvalue = [1, 2, 0, 0, 0, 0, 0, 0, 0, 0, 0]"] ;
132 -> 150 ;
151 [label="gini = 0.0\nsamples = 1\nvalue = [1, 0, 0, 0, 0, 0, 0, 0, 0, 0, 0]"] ;
150 -> 151 ;
152 [label="gini = 0.0\nsamples = 2\nvalue = [0, 2, 0, 0, 0, 0, 0, 0, 0, 0, 0]"] ;
150 -> 152 ;
153 [label="X[2] <= 0.5\ngini = 0.656\nsamples = 8\nvalue = [4, 1, 0, 0, 0, 0, 2, 0, 0, 0, 1]"] ;
131 -> 153 ;
154 [label="X[3] <= 1.5\ngini = 0.667\nsamples = 3\nvalue = [0, 1, 0, 0, 0, 0, 1, 0, 0, 0, 1]"] ;
153 -> 154 ;
155 [label="gini = 0.0\nsamples = 1\nvalue = [0, 0, 0, 0, 0, 0, 0, 0, 0, 0, 1]"] ;
154 -> 155 ;
156 [label="X[3] <= 3.0\ngini = 0.5\nsamples = 2\nvalue = [0, 1, 0, 0, 0, 0, 1, 0, 0, 0, 0]"] ;
154 -> 156 ;
157 [label="gini = 0.0\nsamples = 1\nvalue = [0, 1, 0, 0, 0, 0, 0, 0, 0, 0, 0]"] ;
156 -> 157 ;
158 [label="gini = 0.0\nsamples = 1\nvalue = [0, 0, 0, 0, 0, 0, 1, 0, 0, 0, 0]"] ;
156 -> 158 ;
159 [label="X[3] <= 2.0\ngini = 0.32\nsamples = 5\nvalue = [4, 0, 0, 0, 0, 0, 1, 0, 0, 0, 0]"] ;
153 -> 159 ;
160 [label="gini = 0.0\nsamples = 2\nvalue = [2, 0, 0, 0, 0, 0, 0, 0, 0, 0, 0]"] ;
159 -> 160 ;
161 [label="X[2] <= 1.5\ngini = 0.444\nsamples = 3\nvalue = [2, 0, 0, 0, 0, 0, 1, 0, 0, 0, 0]"] ;
159 -> 161 ;
162 [label="X[4] <= 0.5\ngini = 0.5\nsamples = 2\nvalue = [1, 0, 0, 0, 0, 0, 1, 0, 0, 0, 0]"] ;
161 -> 162 ;
163 [label="gini = 0.0\nsamples = 1\nvalue = [1, 0, 0, 0, 0, 0, 0, 0, 0, 0, 0]"] ;
162 -> 163 ;
164 [label="gini = 0.0\nsamples = 1\nvalue = [0, 0, 0, 0, 0, 0, 1, 0, 0, 0, 0]"] ;
162 -> 164 ;
165 [label="gini = 0.0\nsamples = 1\nvalue = [1, 0, 0, 0, 0, 0, 0, 0, 0, 0, 0]"] ;
161 -> 165 ;
166 [label="X[4] <= 7.5\ngini = 0.49\nsamples = 7\nvalue = [3, 4, 0, 0, 0, 0, 0, 0, 0, 0, 0]"] ;
130 -> 166 ;
167 [label="X[2] <= 2.0\ngini = 0.444\nsamples = 6\nvalue = [2, 4, 0, 0, 0, 0, 0, 0, 0, 0, 0]"] ;
166 -> 167 ;
168 [label="X[3] <= 0.5\ngini = 0.48\nsamples = 5\nvalue = [2, 3, 0, 0, 0, 0, 0, 0, 0, 0, 0]"] ;
167 -> 168 ;
169 [label="X[2] <= 0.5\ngini = 0.5\nsamples = 2\nvalue = [1, 1, 0, 0, 0, 0, 0, 0, 0, 0, 0]"] ;
168 -> 169 ;
170 [label="gini = 0.0\nsamples = 1\nvalue = [1, 0, 0, 0, 0, 0, 0, 0, 0, 0, 0]"] ;
169 -> 170 ;
171 [label="gini = 0.0\nsamples = 1\nvalue = [0, 1, 0, 0, 0, 0, 0, 0, 0, 0, 0]"] ;
169 -> 171 ;
172 [label="X[3] <= 2.5\ngini = 0.444\nsamples = 3\nvalue = [1, 2, 0, 0, 0, 0, 0, 0, 0, 0, 0]"] ;
168 -> 172 ;
173 [label="gini = 0.0\nsamples = 1\nvalue = [0, 1, 0, 0, 0, 0, 0, 0, 0, 0, 0]"] ;
172 -> 173 ;
174 [label="X[2] <= 0.5\ngini = 0.5\nsamples = 2\nvalue = [1, 1, 0, 0, 0, 0, 0, 0, 0, 0, 0]"] ;
172 -> 174 ;
175 [label="gini = 0.0\nsamples = 1\nvalue = [0, 1, 0, 0, 0, 0, 0, 0, 0, 0, 0]"] ;
174 -> 175 ;
176 [label="gini = 0.0\nsamples = 1\nvalue = [1, 0, 0, 0, 0, 0, 0, 0, 0, 0, 0]"] ;
174 -> 176 ;
177 [label="gini = 0.0\nsamples = 1\nvalue = [0, 1, 0, 0, 0, 0, 0, 0, 0, 0, 0]"] ;
167 -> 177 ;
178 [label="gini = 0.0\nsamples = 1\nvalue = [1, 0, 0, 0, 0, 0, 0, 0, 0, 0, 0]"] ;
166 -> 178 ;
179 [label="X[3] <= 3.5\ngini = 0.778\nsamples = 102\nvalue = [34, 31, 2, 3, 6, 4, 9, 2, 5, 3, 3]"] ;
129 -> 179 ;
180 [label="X[2] <= 0.5\ngini = 0.774\nsamples = 76\nvalue = [22, 27, 2, 3, 5, 2, 5, 2, 3, 3, 2]"] ;
179 -> 180 ;
181 [label="X[4] <= 6.0\ngini = 0.751\nsamples = 26\nvalue = [2, 12, 1, 1, 2, 1, 3, 1, 1, 1, 1]"] ;
180 -> 181 ;
182 [label="X[1] <= 2.5\ngini = 0.669\nsamples = 22\nvalue = [2, 12, 1, 0, 2, 1, 2, 1, 1, 0, 0]"] ;
181 -> 182 ;
183 [label="X[3] <= 0.5\ngini = 0.644\nsamples = 21\nvalue = [2, 12, 1, 0, 1, 1, 2, 1, 1, 0, 0]"] ;
182 -> 183 ;
184 [label="X[4] <= 3.0\ngini = 0.642\nsamples = 9\nvalue = [0, 5, 1, 0, 1, 1, 0, 1, 0, 0, 0]"] ;
183 -> 184 ;
185 [label="X[4] <= 0.5\ngini = 0.449\nsamples = 7\nvalue = [0, 5, 0, 0, 1, 0, 0, 1, 0, 0, 0]"] ;
184 -> 185 ;
186 [label="gini = 0.444\nsamples = 3\nvalue = [0, 2, 0, 0, 1, 0, 0, 0, 0, 0, 0]"] ;
185 -> 186 ;
187 [label="X[4] <= 1.5\ngini = 0.375\nsamples = 4\nvalue = [0, 3, 0, 0, 0, 0, 0, 1, 0, 0, 0]"] ;
185 -> 187 ;
188 [label="gini = 0.0\nsamples = 1\nvalue = [0, 1, 0, 0, 0, 0, 0, 0, 0, 0, 0]"] ;
187 -> 188 ;
189 [label="gini = 0.444\nsamples = 3\nvalue = [0, 2, 0, 0, 0, 0, 0, 1, 0, 0, 0]"] ;
187 -> 189 ;
190 [label="X[4] <= 4.5\ngini = 0.5\nsamples = 2\nvalue = [0, 0, 1, 0, 0, 1, 0, 0, 0, 0, 0]"] ;
184 -> 190 ;
191 [label="gini = 0.0\nsamples = 1\nvalue = [0, 0, 1, 0, 0, 0, 0, 0, 0, 0, 0]"] ;
190 -> 191 ;
192 [label="gini = 0.0\nsamples = 1\nvalue = [0, 0, 0, 0, 0, 1, 0, 0, 0, 0, 0]"] ;
190 -> 192 ;
193 [label="X[4] <= 1.5\ngini = 0.597\nsamples = 12\nvalue = [2, 7, 0, 0, 0, 0, 2, 0, 1, 0, 0]"] ;
183 -> 193 ;
194 [label="X[4] <= 0.5\ngini = 0.667\nsamples = 3\nvalue = [0, 1, 0, 0, 0, 0, 1, 0, 1, 0, 0]"] ;
193 -> 194 ;
195 [label="X[3] <= 2.0\ngini = 0.5\nsamples = 2\nvalue = [0, 1, 0, 0, 0, 0, 0, 0, 1, 0, 0]"] ;
194 -> 195 ;
196 [label="gini = 0.0\nsamples = 1\nvalue = [0, 0, 0, 0, 0, 0, 0, 0, 1, 0, 0]"] ;
195 -> 196 ;
197 [label="gini = 0.0\nsamples = 1\nvalue = [0, 1, 0, 0, 0, 0, 0, 0, 0, 0, 0]"] ;
195 -> 197 ;
198 [label="gini = 0.0\nsamples = 1\nvalue = [0, 0, 0, 0, 0, 0, 1, 0, 0, 0, 0]"] ;
194 -> 198 ;
199 [label="X[3] <= 2.5\ngini = 0.494\nsamples = 9\nvalue = [2, 6, 0, 0, 0, 0, 1, 0, 0, 0, 0]"] ;
193 -> 199 ;
200 [label="X[4] <= 4.5\ngini = 0.408\nsamples = 7\nvalue = [2, 5, 0, 0, 0, 0, 0, 0, 0, 0, 0]"] ;
199 -> 200 ;
201 [label="X[4] <= 3.5\ngini = 0.48\nsamples = 5\nvalue = [2, 3, 0, 0, 0, 0, 0, 0, 0, 0, 0]"] ;
200 -> 201 ;
202 [label="X[4] <= 2.5\ngini = 0.375\nsamples = 4\nvalue = [1, 3, 0, 0, 0, 0, 0, 0, 0, 0, 0]"] ;
201 -> 202 ;
203 [label="gini = 0.444\nsamples = 3\nvalue = [1, 2, 0, 0, 0, 0, 0, 0, 0, 0, 0]"] ;
202 -> 203 ;
204 [label="gini = 0.0\nsamples = 1\nvalue = [0, 1, 0, 0, 0, 0, 0, 0, 0, 0, 0]"] ;
202 -> 204 ;
205 [label="gini = 0.0\nsamples = 1\nvalue = [1, 0, 0, 0, 0, 0, 0, 0, 0, 0, 0]"] ;
201 -> 205 ;
206 [label="gini = 0.0\nsamples = 2\nvalue = [0, 2, 0, 0, 0, 0, 0, 0, 0, 0, 0]"] ;
200 -> 206 ;
207 [label="gini = 0.5\nsamples = 2\nvalue = [0, 1, 0, 0, 0, 0, 1, 0, 0, 0, 0]"] ;
199 -> 207 ;
208 [label="gini = 0.0\nsamples = 1\nvalue = [0, 0, 0, 0, 1, 0, 0, 0, 0, 0, 0]"] ;
182 -> 208 ;
209 [label="X[1] <= 1.5\ngini = 0.75\nsamples = 4\nvalue = [0, 0, 0, 1, 0, 0, 1, 0, 0, 1, 1]"] ;
181 -> 209 ;
210 [label="X[3] <= 0.5\ngini = 0.667\nsamples = 3\nvalue = [0, 0, 0, 1, 0, 0, 1, 0, 0, 0, 1]"] ;
209 -> 210 ;
211 [label="gini = 0.0\nsamples = 1\nvalue = [0, 0, 0, 0, 0, 0, 0, 0, 0, 0, 1]"] ;
210 -> 211 ;
212 [label="gini = 0.5\nsamples = 2\nvalue = [0, 0, 0, 1, 0, 0, 1, 0, 0, 0, 0]"] ;
210 -> 212 ;
213 [label="gini = 0.0\nsamples = 1\nvalue = [0, 0, 0, 0, 0, 0, 0, 0, 0, 1, 0]"] ;
209 -> 213 ;
214 [label="X[3] <= 0.5\ngini = 0.738\nsamples = 50\nvalue = [20, 15, 1, 2, 3, 1, 2, 1, 2, 2, 1]"] ;
180 -> 214 ;
215 [label="X[4] <= 1.5\ngini = 0.766\nsamples = 21\nvalue = [9, 2, 1, 1, 3, 1, 1, 0, 2, 1, 0]"] ;
214 -> 215 ;
216 [label="X[2] <= 2.5\ngini = 0.562\nsamples = 8\nvalue = [5, 0, 0, 0, 0, 1, 1, 0, 1, 0, 0]"] ;
215 -> 216 ;
217 [label="X[1] <= 2.0\ngini = 0.449\nsamples = 7\nvalue = [5, 0, 0, 0, 0, 1, 0, 0, 1, 0, 0]"] ;
216 -> 217 ;
218 [label="gini = 0.0\nsamples = 4\nvalue = [4, 0, 0, 0, 0, 0, 0, 0, 0, 0, 0]"] ;
217 -> 218 ;
219 [label="X[4] <= 0.5\ngini = 0.667\nsamples = 3\nvalue = [1, 0, 0, 0, 0, 1, 0, 0, 1, 0, 0]"] ;
217 -> 219 ;
220 [label="gini = 0.0\nsamples = 1\nvalue = [1, 0, 0, 0, 0, 0, 0, 0, 0, 0, 0]"] ;
219 -> 220 ;
221 [label="gini = 0.5\nsamples = 2\nvalue = [0, 0, 0, 0, 0, 1, 0, 0, 1, 0, 0]"] ;
219 -> 221 ;
222 [label="gini = 0.0\nsamples = 1\nvalue = [0, 0, 0, 0, 0, 0, 1, 0, 0, 0, 0]"] ;
216 -> 222 ;
223 [label="X[1] <= 1.5\ngini = 0.805\nsamples = 13\nvalue = [4, 2, 1, 1, 3, 0, 0, 0, 1, 1, 0]"] ;
215 -> 223 ;
224 [label="X[4] <= 5.5\ngini = 0.781\nsamples = 8\nvalue = [1, 1, 1, 1, 3, 0, 0, 0, 1, 0, 0]"] ;
223 -> 224 ;
225 [label="gini = 0.0\nsamples = 3\nvalue = [0, 0, 0, 0, 3, 0, 0, 0, 0, 0, 0]"] ;
224 -> 225 ;
226 [label="X[4] <= 6.5\ngini = 0.8\nsamples = 5\nvalue = [1, 1, 1, 1, 0, 0, 0, 0, 1, 0, 0]"] ;
224 -> 226 ;
227 [label="X[2] <= 1.5\ngini = 0.667\nsamples = 3\nvalue = [1, 1, 1, 0, 0, 0, 0, 0, 0, 0, 0]"] ;
226 -> 227 ;
228 [label="gini = 0.5\nsamples = 2\nvalue = [1, 1, 0, 0, 0, 0, 0, 0, 0, 0, 0]"] ;
227 -> 228 ;
229 [label="gini = 0.0\nsamples = 1\nvalue = [0, 0, 1, 0, 0, 0, 0, 0, 0, 0, 0]"] ;
227 -> 229 ;
230 [label="gini = 0.5\nsamples = 2\nvalue = [0, 0, 0, 1, 0, 0, 0, 0, 1, 0, 0]"] ;
226 -> 230 ;
231 [label="X[2] <= 1.5\ngini = 0.56\nsamples = 5\nvalue = [3, 1, 0, 0, 0, 0, 0, 0, 0, 1, 0]"] ;
223 -> 231 ;
232 [label="X[1] <= 2.5\ngini = 0.667\nsamples = 3\nvalue = [1, 1, 0, 0, 0, 0, 0, 0, 0, 1, 0]"] ;
231 -> 232 ;
233 [label="gini = 0.0\nsamples = 1\nvalue = [1, 0, 0, 0, 0, 0, 0, 0, 0, 0, 0]"] ;
232 -> 233 ;
234 [label="X[4] <= 5.0\ngini = 0.5\nsamples = 2\nvalue = [0, 1, 0, 0, 0, 0, 0, 0, 0, 1, 0]"] ;
232 -> 234 ;
235 [label="gini = 0.0\nsamples = 1\nvalue = [0, 1, 0, 0, 0, 0, 0, 0, 0, 0, 0]"] ;
234 -> 235 ;
236 [label="gini = 0.0\nsamples = 1\nvalue = [0, 0, 0, 0, 0, 0, 0, 0, 0, 1, 0]"] ;
234 -> 236 ;
237 [label="gini = 0.0\nsamples = 2\nvalue = [2, 0, 0, 0, 0, 0, 0, 0, 0, 0, 0]"] ;
231 -> 237 ;
238 [label="X[4] <= 1.5\ngini = 0.649\nsamples = 29\nvalue = [11, 13, 0, 1, 0, 0, 1, 1, 0, 1, 1]"] ;
214 -> 238 ;
239 [label="X[3] <= 2.5\ngini = 0.37\nsamples = 9\nvalue = [1, 7, 0, 0, 0, 0, 0, 1, 0, 0, 0]"] ;
238 -> 239 ;
240 [label="gini = 0.0\nsamples = 7\nvalue = [0, 7, 0, 0, 0, 0, 0, 0, 0, 0, 0]"] ;
239 -> 240 ;
241 [label="X[2] <= 1.5\ngini = 0.5\nsamples = 2\nvalue = [1, 0, 0, 0, 0, 0, 0, 1, 0, 0, 0]"] ;
239 -> 241 ;
242 [label="gini = 0.0\nsamples = 1\nvalue = [0, 0, 0, 0, 0, 0, 0, 1, 0, 0, 0]"] ;
241 -> 242 ;
243 [label="gini = 0.0\nsamples = 1\nvalue = [1, 0, 0, 0, 0, 0, 0, 0, 0, 0, 0]"] ;
241 -> 243 ;
244 [label="X[2] <= 2.5\ngini = 0.65\nsamples = 20\nvalue = [10, 6, 0, 1, 0, 0, 1, 0, 0, 1, 1]"] ;
238 -> 244 ;
245 [label="X[4] <= 5.5\ngini = 0.574\nsamples = 18\nvalue = [10, 6, 0, 1, 0, 0, 0, 0, 0, 0, 1]"] ;
244 -> 245 ;
246 [label="X[1] <= 1.5\ngini = 0.5\nsamples = 14\nvalue = [9, 4, 0, 1, 0, 0, 0, 0, 0, 0, 0]"] ;
245 -> 246 ;
247 [label="X[3] <= 1.5\ngini = 0.562\nsamples = 11\nvalue = [6, 4, 0, 1, 0, 0, 0, 0, 0, 0, 0]"] ;
246 -> 247 ;
248 [label="X[2] <= 1.5\ngini = 0.5\nsamples = 6\nvalue = [3, 3, 0, 0, 0, 0, 0, 0, 0, 0, 0]"] ;
247 -> 248 ;
249 [label="X[4] <= 2.5\ngini = 0.48\nsamples = 5\nvalue = [2, 3, 0, 0, 0, 0, 0, 0, 0, 0, 0]"] ;
248 -> 249 ;
250 [label="gini = 0.0\nsamples = 1\nvalue = [0, 1, 0, 0, 0, 0, 0, 0, 0, 0, 0]"] ;
249 -> 250 ;
251 [label="X[4] <= 3.5\ngini = 0.5\nsamples = 4\nvalue = [2, 2, 0, 0, 0, 0, 0, 0, 0, 0, 0]"] ;
249 -> 251 ;
252 [label="gini = 0.5\nsamples = 2\nvalue = [1, 1, 0, 0, 0, 0, 0, 0, 0, 0, 0]"] ;
251 -> 252 ;
253 [label="gini = 0.5\nsamples = 2\nvalue = [1, 1, 0, 0, 0, 0, 0, 0, 0, 0, 0]"] ;
251 -> 253 ;
254 [label="gini = 0.0\nsamples = 1\nvalue = [1, 0, 0, 0, 0, 0, 0, 0, 0, 0, 0]"] ;
248 -> 254 ;
255 [label="X[4] <= 3.5\ngini = 0.56\nsamples = 5\nvalue = [3, 1, 0, 1, 0, 0, 0, 0, 0, 0, 0]"] ;
247 -> 255 ;
256 [label="X[4] <= 2.5\ngini = 0.5\nsamples = 2\nvalue = [1, 0, 0, 1, 0, 0, 0, 0, 0, 0, 0]"] ;
255 -> 256 ;
257 [label="gini = 0.0\nsamples = 1\nvalue = [1, 0, 0, 0, 0, 0, 0, 0, 0, 0, 0]"] ;
256 -> 257 ;
258 [label="gini = 0.0\nsamples = 1\nvalue = [0, 0, 0, 1, 0, 0, 0, 0, 0, 0, 0]"] ;
256 -> 258 ;
259 [label="X[3] <= 2.5\ngini = 0.444\nsamples = 3\nvalue = [2, 1, 0, 0, 0, 0, 0, 0, 0, 0, 0]"] ;
255 -> 259 ;
260 [label="gini = 0.0\nsamples = 1\nvalue = [1, 0, 0, 0, 0, 0, 0, 0, 0, 0, 0]"] ;
259 -> 260 ;
261 [label="X[4] <= 4.5\ngini = 0.5\nsamples = 2\nvalue = [1, 1, 0, 0, 0, 0, 0, 0, 0, 0, 0]"] ;
259 -> 261 ;
262 [label="gini = 0.0\nsamples = 1\nvalue = [1, 0, 0, 0, 0, 0, 0, 0, 0, 0, 0]"] ;
261 -> 262 ;
263 [label="gini = 0.0\nsamples = 1\nvalue = [0, 1, 0, 0, 0, 0, 0, 0, 0, 0, 0]"] ;
261 -> 263 ;
264 [label="gini = 0.0\nsamples = 3\nvalue = [3, 0, 0, 0, 0, 0, 0, 0, 0, 0, 0]"] ;
246 -> 264 ;
265 [label="X[3] <= 1.5\ngini = 0.625\nsamples = 4\nvalue = [1, 2, 0, 0, 0, 0, 0, 0, 0, 0, 1]"] ;
245 -> 265 ;
266 [label="gini = 0.0\nsamples = 2\nvalue = [0, 2, 0, 0, 0, 0, 0, 0, 0, 0, 0]"] ;
265 -> 266 ;
267 [label="X[2] <= 1.5\ngini = 0.5\nsamples = 2\nvalue = [1, 0, 0, 0, 0, 0, 0, 0, 0, 0, 1]"] ;
265 -> 267 ;
268 [label="gini = 0.0\nsamples = 1\nvalue = [1, 0, 0, 0, 0, 0, 0, 0, 0, 0, 0]"] ;
267 -> 268 ;
269 [label="gini = 0.0\nsamples = 1\nvalue = [0, 0, 0, 0, 0, 0, 0, 0, 0, 0, 1]"] ;
267 -> 269 ;
270 [label="X[4] <= 5.5\ngini = 0.5\nsamples = 2\nvalue = [0, 0, 0, 0, 0, 0, 1, 0, 0, 1, 0]"] ;
244 -> 270 ;
271 [label="gini = 0.0\nsamples = 1\nvalue = [0, 0, 0, 0, 0, 0, 0, 0, 0, 1, 0]"] ;
270 -> 271 ;
272 [label="gini = 0.0\nsamples = 1\nvalue = [0, 0, 0, 0, 0, 0, 1, 0, 0, 0, 0]"] ;
270 -> 272 ;
273 [label="X[2] <= 0.5\ngini = 0.725\nsamples = 26\nvalue = [12, 4, 0, 0, 1, 2, 4, 0, 2, 0, 1]"] ;
179 -> 273 ;
274 [label="X[1] <= 2.0\ngini = 0.245\nsamples = 7\nvalue = [6, 0, 0, 0, 0, 0, 0, 0, 0, 0, 1]"] ;
273 -> 274 ;
275 [label="gini = 0.0\nsamples = 6\nvalue = [6, 0, 0, 0, 0, 0, 0, 0, 0, 0, 0]"] ;
274 -> 275 ;
276 [label="gini = 0.0\nsamples = 1\nvalue = [0, 0, 0, 0, 0, 0, 0, 0, 0, 0, 1]"] ;
274 -> 276 ;
277 [label="X[2] <= 1.5\ngini = 0.787\nsamples = 19\nvalue = [6, 4, 0, 0, 1, 2, 4, 0, 2, 0, 0]"] ;
273 -> 277 ;
278 [label="X[4] <= 2.0\ngini = 0.764\nsamples = 15\nvalue = [4, 4, 0, 0, 0, 2, 4, 0, 1, 0, 0]"] ;
277 -> 278 ;
279 [label="X[3] <= 4.5\ngini = 0.722\nsamples = 6\nvalue = [2, 2, 0, 0, 0, 1, 0, 0, 1, 0, 0]"] ;
278 -> 279 ;
280 [label="gini = 0.72\nsamples = 5\nvalue = [1, 2, 0, 0, 0, 1, 0, 0, 1, 0, 0]"] ;
279 -> 280 ;
281 [label="gini = 0.0\nsamples = 1\nvalue = [1, 0, 0, 0, 0, 0, 0, 0, 0, 0, 0]"] ;
279 -> 281 ;
282 [label="X[3] <= 4.5\ngini = 0.691\nsamples = 9\nvalue = [2, 2, 0, 0, 0, 1, 4, 0, 0, 0, 0]"] ;
278 -> 282 ;
283 [label="X[4] <= 3.5\ngini = 0.611\nsamples = 6\nvalue = [2, 1, 0, 0, 0, 0, 3, 0, 0, 0, 0]"] ;
282 -> 283 ;
284 [label="gini = 0.0\nsamples = 1\nvalue = [0, 1, 0, 0, 0, 0, 0, 0, 0, 0, 0]"] ;
283 -> 284 ;
285 [label="X[4] <= 6.5\ngini = 0.48\nsamples = 5\nvalue = [2, 0, 0, 0, 0, 0, 3, 0, 0, 0, 0]"] ;
283 -> 285 ;
286 [label="X[4] <= 5.5\ngini = 0.5\nsamples = 4\nvalue = [2, 0, 0, 0, 0, 0, 2, 0, 0, 0, 0]"] ;
285 -> 286 ;
287 [label="X[4] <= 4.5\ngini = 0.444\nsamples = 3\nvalue = [1, 0, 0, 0, 0, 0, 2, 0, 0, 0, 0]"] ;
286 -> 287 ;
288 [label="gini = 0.5\nsamples = 2\nvalue = [1, 0, 0, 0, 0, 0, 1, 0, 0, 0, 0]"] ;
287 -> 288 ;
289 [label="gini = 0.0\nsamples = 1\nvalue = [0, 0, 0, 0, 0, 0, 1, 0, 0, 0, 0]"] ;
287 -> 289 ;
290 [label="gini = 0.0\nsamples = 1\nvalue = [1, 0, 0, 0, 0, 0, 0, 0, 0, 0, 0]"] ;
286 -> 290 ;
291 [label="gini = 0.0\nsamples = 1\nvalue = [0, 0, 0, 0, 0, 0, 1, 0, 0, 0, 0]"] ;
285 -> 291 ;
292 [label="X[4] <= 4.0\ngini = 0.667\nsamples = 3\nvalue = [0, 1, 0, 0, 0, 1, 1, 0, 0, 0, 0]"] ;
282 -> 292 ;
293 [label="gini = 0.5\nsamples = 2\nvalue = [0, 0, 0, 0, 0, 1, 1, 0, 0, 0, 0]"] ;
292 -> 293 ;
294 [label="gini = 0.0\nsamples = 1\nvalue = [0, 1, 0, 0, 0, 0, 0, 0, 0, 0, 0]"] ;
292 -> 294 ;
295 [label="X[4] <= 5.5\ngini = 0.625\nsamples = 4\nvalue = [2, 0, 0, 0, 1, 0, 0, 0, 1, 0, 0]"] ;
277 -> 295 ;
296 [label="X[3] <= 4.5\ngini = 0.444\nsamples = 3\nvalue = [2, 0, 0, 0, 1, 0, 0, 0, 0, 0, 0]"] ;
295 -> 296 ;
297 [label="X[2] <= 2.5\ngini = 0.5\nsamples = 2\nvalue = [1, 0, 0, 0, 1, 0, 0, 0, 0, 0, 0]"] ;
296 -> 297 ;
298 [label="gini = 0.0\nsamples = 1\nvalue = [1, 0, 0, 0, 0, 0, 0, 0, 0, 0, 0]"] ;
297 -> 298 ;
299 [label="gini = 0.0\nsamples = 1\nvalue = [0, 0, 0, 0, 1, 0, 0, 0, 0, 0, 0]"] ;
297 -> 299 ;
300 [label="gini = 0.0\nsamples = 1\nvalue = [1, 0, 0, 0, 0, 0, 0, 0, 0, 0, 0]"] ;
296 -> 300 ;
301 [label="gini = 0.0\nsamples = 1\nvalue = [0, 0, 0, 0, 0, 0, 0, 0, 1, 0, 0]"] ;
295 -> 301 ;
302 [label="X[4] <= 8.5\ngini = 0.711\nsamples = 92\nvalue = [27, 40, 0, 7, 4, 5, 2, 3, 1, 3, 0]"] ;
128 -> 302 ;
303 [label="X[3] <= 3.5\ngini = 0.7\nsamples = 90\nvalue = [27, 40, 0, 7, 4, 5, 2, 1, 1, 3, 0]"] ;
302 -> 303 ;
304 [label="X[2] <= 4.5\ngini = 0.691\nsamples = 65\nvalue = [24, 26, 0, 4, 1, 5, 1, 0, 1, 3, 0]"] ;
303 -> 304 ;
305 [label="X[0] <= 0.5\ngini = 0.734\nsamples = 17\nvalue = [3, 7, 0, 1, 1, 4, 0, 0, 0, 1, 0]"] ;
304 -> 305 ;
306 [label="X[1] <= 1.5\ngini = 0.625\nsamples = 4\nvalue = [2, 0, 0, 0, 1, 0, 0, 0, 0, 1, 0]"] ;
305 -> 306 ;
307 [label="X[4] <= 3.0\ngini = 0.5\nsamples = 2\nvalue = [0, 0, 0, 0, 1, 0, 0, 0, 0, 1, 0]"] ;
306 -> 307 ;
308 [label="gini = 0.0\nsamples = 1\nvalue = [0, 0, 0, 0, 0, 0, 0, 0, 0, 1, 0]"] ;
307 -> 308 ;
309 [label="gini = 0.0\nsamples = 1\nvalue = [0, 0, 0, 0, 1, 0, 0, 0, 0, 0, 0]"] ;
307 -> 309 ;
310 [label="gini = 0.0\nsamples = 2\nvalue = [2, 0, 0, 0, 0, 0, 0, 0, 0, 0, 0]"] ;
306 -> 310 ;
311 [label="X[4] <= 4.5\ngini = 0.604\nsamples = 13\nvalue = [1, 7, 0, 1, 0, 4, 0, 0, 0, 0, 0]"] ;
305 -> 311 ;
312 [label="X[4] <= 3.0\ngini = 0.694\nsamples = 7\nvalue = [1, 2, 0, 1, 0, 3, 0, 0, 0, 0, 0]"] ;
311 -> 312 ;
313 [label="X[3] <= 1.5\ngini = 0.72\nsamples = 5\nvalue = [1, 2, 0, 1, 0, 1, 0, 0, 0, 0, 0]"] ;
312 -> 313 ;
314 [label="X[3] <= 0.5\ngini = 0.625\nsamples = 4\nvalue = [1, 2, 0, 0, 0, 1, 0, 0, 0, 0, 0]"] ;
313 -> 314 ;
315 [label="X[4] <= 1.5\ngini = 0.667\nsamples = 3\nvalue = [1, 1, 0, 0, 0, 1, 0, 0, 0, 0, 0]"] ;
314 -> 315 ;
316 [label="gini = 0.5\nsamples = 2\nvalue = [0, 1, 0, 0, 0, 1, 0, 0, 0, 0, 0]"] ;
315 -> 316 ;
317 [label="gini = 0.0\nsamples = 1\nvalue = [1, 0, 0, 0, 0, 0, 0, 0, 0, 0, 0]"] ;
315 -> 317 ;
318 [label="gini = 0.0\nsamples = 1\nvalue = [0, 1, 0, 0, 0, 0, 0, 0, 0, 0, 0]"] ;
314 -> 318 ;
319 [label="gini = 0.0\nsamples = 1\nvalue = [0, 0, 0, 1, 0, 0, 0, 0, 0, 0, 0]"] ;
313 -> 319 ;
320 [label="gini = 0.0\nsamples = 2\nvalue = [0, 0, 0, 0, 0, 2, 0, 0, 0, 0, 0]"] ;
312 -> 320 ;
321 [label="X[4] <= 6.5\ngini = 0.278\nsamples = 6\nvalue = [0, 5, 0, 0, 0, 1, 0, 0, 0, 0, 0]"] ;
311 -> 321 ;
322 [label="gini = 0.0\nsamples = 4\nvalue = [0, 4, 0, 0, 0, 0, 0, 0, 0, 0, 0]"] ;
321 -> 322 ;
323 [label="X[3] <= 1.0\ngini = 0.5\nsamples = 2\nvalue = [0, 1, 0, 0, 0, 1, 0, 0, 0, 0, 0]"] ;
321 -> 323 ;
324 [label="gini = 0.0\nsamples = 1\nvalue = [0, 1, 0, 0, 0, 0, 0, 0, 0, 0, 0]"] ;
323 -> 324 ;
325 [label="gini = 0.0\nsamples = 1\nvalue = [0, 0, 0, 0, 0, 1, 0, 0, 0, 0, 0]"] ;
323 -> 325 ;
326 [label="X[4] <= 6.5\ngini = 0.645\nsamples = 48\nvalue = [21, 19, 0, 3, 0, 1, 1, 0, 1, 2, 0]"] ;
304 -> 326 ;
327 [label="X[2] <= 8.5\ngini = 0.646\nsamples = 41\nvalue = [16, 18, 0, 3, 0, 0, 1, 0, 1, 2, 0]"] ;
326 -> 327 ;
328 [label="X[2] <= 6.5\ngini = 0.645\nsamples = 35\nvalue = [15, 14, 0, 3, 0, 0, 1, 0, 0, 2, 0]"] ;
327 -> 328 ;
329 [label="X[3] <= 2.5\ngini = 0.63\nsamples = 25\nvalue = [9, 12, 0, 2, 0, 0, 1, 0, 0, 1, 0]"] ;
328 -> 329 ;
330 [label="X[3] <= 0.5\ngini = 0.601\nsamples = 23\nvalue = [8, 12, 0, 1, 0, 0, 1, 0, 0, 1, 0]"] ;
329 -> 330 ;
331 [label="X[1] <= 2.5\ngini = 0.579\nsamples = 11\nvalue = [5, 5, 0, 0, 0, 0, 1, 0, 0, 0, 0]"] ;
330 -> 331 ;
332 [label="X[0] <= 0.5\ngini = 0.494\nsamples = 9\nvalue = [5, 4, 0, 0, 0, 0, 0, 0, 0, 0, 0]"] ;
331 -> 332 ;
333 [label="X[2] <= 5.5\ngini = 0.375\nsamples = 4\nvalue = [1, 3, 0, 0, 0, 0, 0, 0, 0, 0, 0]"] ;
332 -> 333 ;
334 [label="X[4] <= 4.5\ngini = 0.5\nsamples = 2\nvalue = [1, 1, 0, 0, 0, 0, 0, 0, 0, 0, 0]"] ;
333 -> 334 ;
335 [label="gini = 0.0\nsamples = 1\nvalue = [0, 1, 0, 0, 0, 0, 0, 0, 0, 0, 0]"] ;
334 -> 335 ;
336 [label="gini = 0.0\nsamples = 1\nvalue = [1, 0, 0, 0, 0, 0, 0, 0, 0, 0, 0]"] ;
334 -> 336 ;
337 [label="gini = 0.0\nsamples = 2\nvalue = [0, 2, 0, 0, 0, 0, 0, 0, 0, 0, 0]"] ;
333 -> 337 ;
338 [label="X[2] <= 5.5\ngini = 0.32\nsamples = 5\nvalue = [4, 1, 0, 0, 0, 0, 0, 0, 0, 0, 0]"] ;
332 -> 338 ;
339 [label="gini = 0.5\nsamples = 2\nvalue = [1, 1, 0, 0, 0, 0, 0, 0, 0, 0, 0]"] ;
338 -> 339 ;
340 [label="gini = 0.0\nsamples = 3\nvalue = [3, 0, 0, 0, 0, 0, 0, 0, 0, 0, 0]"] ;
338 -> 340 ;
341 [label="X[0] <= 0.5\ngini = 0.5\nsamples = 2\nvalue = [0, 1, 0, 0, 0, 0, 1, 0, 0, 0, 0]"] ;
331 -> 341 ;
342 [label="gini = 0.0\nsamples = 1\nvalue = [0, 0, 0, 0, 0, 0, 1, 0, 0, 0, 0]"] ;
341 -> 342 ;
343 [label="gini = 0.0\nsamples = 1\nvalue = [0, 1, 0, 0, 0, 0, 0, 0, 0, 0, 0]"] ;
341 -> 343 ;
344 [label="X[4] <= 3.5\ngini = 0.583\nsamples = 12\nvalue = [3, 7, 0, 1, 0, 0, 0, 0, 0, 1, 0]"] ;
330 -> 344 ;
345 [label="X[4] <= 1.5\ngini = 0.449\nsamples = 7\nvalue = [1, 5, 0, 0, 0, 0, 0, 0, 0, 1, 0]"] ;
344 -> 345 ;
346 [label="X[4] <= 0.5\ngini = 0.625\nsamples = 4\nvalue = [1, 2, 0, 0, 0, 0, 0, 0, 0, 1, 0]"] ;
345 -> 346 ;
347 [label="gini = 0.0\nsamples = 2\nvalue = [0, 2, 0, 0, 0, 0, 0, 0, 0, 0, 0]"] ;
346 -> 347 ;
348 [label="X[2] <= 5.5\ngini = 0.5\nsamples = 2\nvalue = [1, 0, 0, 0, 0, 0, 0, 0, 0, 1, 0]"] ;
346 -> 348 ;
349 [label="gini = 0.0\nsamples = 1\nvalue = [1, 0, 0, 0, 0, 0, 0, 0, 0, 0, 0]"] ;
348 -> 349 ;
350 [label="gini = 0.0\nsamples = 1\nvalue = [0, 0, 0, 0, 0, 0, 0, 0, 0, 1, 0]"] ;
348 -> 350 ;
351 [label="gini = 0.0\nsamples = 3\nvalue = [0, 3, 0, 0, 0, 0, 0, 0, 0, 0, 0]"] ;
345 -> 351 ;
352 [label="X[3] <= 1.5\ngini = 0.64\nsamples = 5\nvalue = [2, 2, 0, 1, 0, 0, 0, 0, 0, 0, 0]"] ;
344 -> 352 ;
353 [label="X[0] <= 0.5\ngini = 0.625\nsamples = 4\nvalue = [1, 2, 0, 1, 0, 0, 0, 0, 0, 0, 0]"] ;
352 -> 353 ;
354 [label="gini = 0.5\nsamples = 2\nvalue = [1, 1, 0, 0, 0, 0, 0, 0, 0, 0, 0]"] ;
353 -> 354 ;
355 [label="gini = 0.5\nsamples = 2\nvalue = [0, 1, 0, 1, 0, 0, 0, 0, 0, 0, 0]"] ;
353 -> 355 ;
356 [label="gini = 0.0\nsamples = 1\nvalue = [1, 0, 0, 0, 0, 0, 0, 0, 0, 0, 0]"] ;
352 -> 356 ;
357 [label="X[4] <= 2.0\ngini = 0.5\nsamples = 2\nvalue = [1, 0, 0, 1, 0, 0, 0, 0, 0, 0, 0]"] ;
329 -> 357 ;
358 [label="gini = 0.0\nsamples = 1\nvalue = [0, 0, 0, 1, 0, 0, 0, 0, 0, 0, 0]"] ;
357 -> 358 ;
359 [label="gini = 0.0\nsamples = 1\nvalue = [1, 0, 0, 0, 0, 0, 0, 0, 0, 0, 0]"] ;
357 -> 359 ;
360 [label="X[0] <= 0.5\ngini = 0.58\nsamples = 10\nvalue = [6, 2, 0, 1, 0, 0, 0, 0, 0, 1, 0]"] ;
328 -> 360 ;
361 [label="gini = 0.0\nsamples = 1\nvalue = [0, 0, 0, 0, 0, 0, 0, 0, 0, 1, 0]"] ;
360 -> 361 ;
362 [label="X[2] <= 7.5\ngini = 0.494\nsamples = 9\nvalue = [6, 2, 0, 1, 0, 0, 0, 0, 0, 0, 0]"] ;
360 -> 362 ;
363 [label="X[4] <= 3.0\ngini = 0.32\nsamples = 5\nvalue = [4, 0, 0, 1, 0, 0, 0, 0, 0, 0, 0]"] ;
362 -> 363 ;
364 [label="gini = 0.0\nsamples = 3\nvalue = [3, 0, 0, 0, 0, 0, 0, 0, 0, 0, 0]"] ;
363 -> 364 ;
365 [label="X[1] <= 1.5\ngini = 0.5\nsamples = 2\nvalue = [1, 0, 0, 1, 0, 0, 0, 0, 0, 0, 0]"] ;
363 -> 365 ;
366 [label="gini = 0.0\nsamples = 1\nvalue = [0, 0, 0, 1, 0, 0, 0, 0, 0, 0, 0]"] ;
365 -> 366 ;
367 [label="gini = 0.0\nsamples = 1\nvalue = [1, 0, 0, 0, 0, 0, 0, 0, 0, 0, 0]"] ;
365 -> 367 ;
368 [label="X[3] <= 0.5\ngini = 0.5\nsamples = 4\nvalue = [2, 2, 0, 0, 0, 0, 0, 0, 0, 0, 0]"] ;
362 -> 368 ;
369 [label="gini = 0.0\nsamples = 1\nvalue = [1, 0, 0, 0, 0, 0, 0, 0, 0, 0, 0]"] ;
368 -> 369 ;
370 [label="X[4] <= 2.0\ngini = 0.444\nsamples = 3\nvalue = [1, 2, 0, 0, 0, 0, 0, 0, 0, 0, 0]"] ;
368 -> 370 ;
371 [label="gini = 0.0\nsamples = 2\nvalue = [0, 2, 0, 0, 0, 0, 0, 0, 0, 0, 0]"] ;
370 -> 371 ;
372 [label="gini = 0.0\nsamples = 1\nvalue = [1, 0, 0, 0, 0, 0, 0, 0, 0, 0, 0]"] ;
370 -> 372 ;
373 [label="X[0] <= 0.5\ngini = 0.5\nsamples = 6\nvalue = [1, 4, 0, 0, 0, 0, 0, 0, 1, 0, 0]"] ;
327 -> 373 ;
374 [label="X[4] <= 3.0\ngini = 0.5\nsamples = 2\nvalue = [1, 0, 0, 0, 0, 0, 0, 0, 1, 0, 0]"] ;
373 -> 374 ;
375 [label="gini = 0.0\nsamples = 1\nvalue = [0, 0, 0, 0, 0, 0, 0, 0, 1, 0, 0]"] ;
374 -> 375 ;
376 [label="gini = 0.0\nsamples = 1\nvalue = [1, 0, 0, 0, 0, 0, 0, 0, 0, 0, 0]"] ;
374 -> 376 ;
377 [label="gini = 0.0\nsamples = 4\nvalue = [0, 4, 0, 0, 0, 0, 0, 0, 0, 0, 0]"] ;
373 -> 377 ;
378 [label="X[0] <= 0.5\ngini = 0.449\nsamples = 7\nvalue = [5, 1, 0, 0, 0, 1, 0, 0, 0, 0, 0]"] ;
326 -> 378 ;
379 [label="gini = 0.0\nsamples = 1\nvalue = [0, 1, 0, 0, 0, 0, 0, 0, 0, 0, 0]"] ;
378 -> 379 ;
380 [label="X[2] <= 5.5\ngini = 0.278\nsamples = 6\nvalue = [5, 0, 0, 0, 0, 1, 0, 0, 0, 0, 0]"] ;
378 -> 380 ;
381 [label="gini = 0.5\nsamples = 2\nvalue = [1, 0, 0, 0, 0, 1, 0, 0, 0, 0, 0]"] ;
380 -> 381 ;
382 [label="gini = 0.0\nsamples = 4\nvalue = [4, 0, 0, 0, 0, 0, 0, 0, 0, 0, 0]"] ;
380 -> 382 ;
383 [label="X[4] <= 7.5\ngini = 0.64\nsamples = 25\nvalue = [3, 14, 0, 3, 3, 0, 1, 1, 0, 0, 0]"] ;
303 -> 383 ;
384 [label="X[2] <= 9.5\ngini = 0.594\nsamples = 23\nvalue = [3, 14, 0, 2, 2, 0, 1, 1, 0, 0, 0]"] ;
383 -> 384 ;
385 [label="X[1] <= 2.5\ngini = 0.558\nsamples = 22\nvalue = [3, 14, 0, 2, 2, 0, 1, 0, 0, 0, 0]"] ;
384 -> 385 ;
386 [label="X[4] <= 0.5\ngini = 0.464\nsamples = 17\nvalue = [3, 12, 0, 1, 0, 0, 1, 0, 0, 0, 0]"] ;
385 -> 386 ;
387 [label="gini = 0.0\nsamples = 1\nvalue = [0, 0, 0, 1, 0, 0, 0, 0, 0, 0, 0]"] ;
386 -> 387 ;
388 [label="X[2] <= 6.5\ngini = 0.398\nsamples = 16\nvalue = [3, 12, 0, 0, 0, 0, 1, 0, 0, 0, 0]"] ;
386 -> 388 ;
389 [label="X[2] <= 5.5\ngini = 0.444\nsamples = 9\nvalue = [3, 6, 0, 0, 0, 0, 0, 0, 0, 0, 0]"] ;
388 -> 389 ;
390 [label="X[4] <= 4.5\ngini = 0.245\nsamples = 7\nvalue = [1, 6, 0, 0, 0, 0, 0, 0, 0, 0, 0]"] ;
389 -> 390 ;
391 [label="X[4] <= 3.0\ngini = 0.375\nsamples = 4\nvalue = [1, 3, 0, 0, 0, 0, 0, 0, 0, 0, 0]"] ;
390 -> 391 ;
392 [label="gini = 0.0\nsamples = 2\nvalue = [0, 2, 0, 0, 0, 0, 0, 0, 0, 0, 0]"] ;
391 -> 392 ;
393 [label="gini = 0.5\nsamples = 2\nvalue = [1, 1, 0, 0, 0, 0, 0, 0, 0, 0, 0]"] ;
391 -> 393 ;
394 [label="gini = 0.0\nsamples = 3\nvalue = [0, 3, 0, 0, 0, 0, 0, 0, 0, 0, 0]"] ;
390 -> 394 ;
395 [label="gini = 0.0\nsamples = 2\nvalue = [2, 0, 0, 0, 0, 0, 0, 0, 0, 0, 0]"] ;
389 -> 395 ;
396 [label="X[4] <= 1.5\ngini = 0.245\nsamples = 7\nvalue = [0, 6, 0, 0, 0, 0, 1, 0, 0, 0, 0]"] ;
388 -> 396 ;
397 [label="gini = 0.0\nsamples = 4\nvalue = [0, 4, 0, 0, 0, 0, 0, 0, 0, 0, 0]"] ;
396 -> 397 ;
398 [label="X[3] <= 4.5\ngini = 0.444\nsamples = 3\nvalue = [0, 2, 0, 0, 0, 0, 1, 0, 0, 0, 0]"] ;
396 -> 398 ;
399 [label="gini = 0.0\nsamples = 2\nvalue = [0, 2, 0, 0, 0, 0, 0, 0, 0, 0, 0]"] ;
398 -> 399 ;
400 [label="gini = 0.0\nsamples = 1\nvalue = [0, 0, 0, 0, 0, 0, 1, 0, 0, 0, 0]"] ;
398 -> 400 ;
401 [label="X[2] <= 6.5\ngini = 0.64\nsamples = 5\nvalue = [0, 2, 0, 1, 2, 0, 0, 0, 0, 0, 0]"] ;
385 -> 401 ;
402 [label="gini = 0.0\nsamples = 2\nvalue = [0, 2, 0, 0, 0, 0, 0, 0, 0, 0, 0]"] ;
401 -> 402 ;
403 [label="X[2] <= 8.0\ngini = 0.444\nsamples = 3\nvalue = [0, 0, 0, 1, 2, 0, 0, 0, 0, 0, 0]"] ;
401 -> 403 ;
404 [label="gini = 0.0\nsamples = 1\nvalue = [0, 0, 0, 1, 0, 0, 0, 0, 0, 0, 0]"] ;
403 -> 404 ;
405 [label="gini = 0.0\nsamples = 2\nvalue = [0, 0, 0, 0, 2, 0, 0, 0, 0, 0, 0]"] ;
403 -> 405 ;
406 [label="gini = 0.0\nsamples = 1\nvalue = [0, 0, 0, 0, 0, 0, 0, 1, 0, 0, 0]"] ;
384 -> 406 ;
407 [label="X[0] <= 0.5\ngini = 0.5\nsamples = 2\nvalue = [0, 0, 0, 1, 1, 0, 0, 0, 0, 0, 0]"] ;
383 -> 407 ;
408 [label="gini = 0.0\nsamples = 1\nvalue = [0, 0, 0, 1, 0, 0, 0, 0, 0, 0, 0]"] ;
407 -> 408 ;
409 [label="gini = 0.0\nsamples = 1\nvalue = [0, 0, 0, 0, 1, 0, 0, 0, 0, 0, 0]"] ;
407 -> 409 ;
410 [label="gini = 0.0\nsamples = 2\nvalue = [0, 0, 0, 0, 0, 0, 0, 2, 0, 0, 0]"] ;
302 -> 410 ;
411 [label="X[3] <= 0.5\ngini = 0.788\nsamples = 627\nvalue = [172, 212, 4, 38, 28, 57, 32, 30, 34, 10, 10]"] ;
3 -> 411 ;
412 [label="X[0] <= 4.5\ngini = 0.726\nsamples = 106\nvalue = [44, 31, 0, 6, 0, 9, 5, 4, 5, 2, 0]"] ;
411 -> 412 ;
413 [label="X[4] <= 4.5\ngini = 0.663\nsamples = 63\nvalue = [25, 26, 0, 2, 0, 4, 1, 1, 4, 0, 0]"] ;
412 -> 413 ;
414 [label="X[1] <= 1.5\ngini = 0.653\nsamples = 47\nvalue = [16, 22, 0, 1, 0, 4, 0, 1, 3, 0, 0]"] ;
413 -> 414 ;
415 [label="X[0] <= 2.5\ngini = 0.654\nsamples = 38\nvalue = [15, 16, 0, 1, 0, 3, 0, 0, 3, 0, 0]"] ;
414 -> 415 ;
416 [label="X[4] <= 3.0\ngini = 0.642\nsamples = 9\nvalue = [4, 2, 0, 0, 0, 0, 0, 0, 3, 0, 0]"] ;
415 -> 416 ;
417 [label="X[4] <= 0.5\ngini = 0.5\nsamples = 6\nvalue = [4, 1, 0, 0, 0, 0, 0, 0, 1, 0, 0]"] ;
416 -> 417 ;
418 [label="gini = 0.0\nsamples = 1\nvalue = [0, 0, 0, 0, 0, 0, 0, 0, 1, 0, 0]"] ;
417 -> 418 ;
419 [label="X[2] <= 0.5\ngini = 0.32\nsamples = 5\nvalue = [4, 1, 0, 0, 0, 0, 0, 0, 0, 0, 0]"] ;
417 -> 419 ;
420 [label="gini = 0.5\nsamples = 2\nvalue = [1, 1, 0, 0, 0, 0, 0, 0, 0, 0, 0]"] ;
419 -> 420 ;
421 [label="gini = 0.0\nsamples = 3\nvalue = [3, 0, 0, 0, 0, 0, 0, 0, 0, 0, 0]"] ;
419 -> 421 ;
422 [label="X[2] <= 1.5\ngini = 0.444\nsamples = 3\nvalue = [0, 1, 0, 0, 0, 0, 0, 0, 2, 0, 0]"] ;
416 -> 422 ;
423 [label="gini = 0.0\nsamples = 1\nvalue = [0, 1, 0, 0, 0, 0, 0, 0, 0, 0, 0]"] ;
422 -> 423 ;
424 [label="gini = 0.0\nsamples = 2\nvalue = [0, 0, 0, 0, 0, 0, 0, 0, 2, 0, 0]"] ;
422 -> 424 ;
425 [label="X[2] <= 6.5\ngini = 0.611\nsamples = 29\nvalue = [11, 14, 0, 1, 0, 3, 0, 0, 0, 0, 0]"] ;
415 -> 425 ;
426 [label="X[2] <= 2.5\ngini = 0.598\nsamples = 25\nvalue = [11, 11, 0, 0, 0, 3, 0, 0, 0, 0, 0]"] ;
425 -> 426 ;
427 [label="X[2] <= 1.5\ngini = 0.568\nsamples = 18\nvalue = [6, 10, 0, 0, 0, 2, 0, 0, 0, 0, 0]"] ;
426 -> 427 ;
428 [label="X[0] <= 3.5\ngini = 0.594\nsamples = 16\nvalue = [6, 8, 0, 0, 0, 2, 0, 0, 0, 0, 0]"] ;
427 -> 428 ;
429 [label="X[1] <= 0.5\ngini = 0.625\nsamples = 4\nvalue = [2, 1, 0, 0, 0, 1, 0, 0, 0, 0, 0]"] ;
428 -> 429 ;
430 [label="X[4] <= 1.5\ngini = 0.5\nsamples = 2\nvalue = [1, 1, 0, 0, 0, 0, 0, 0, 0, 0, 0]"] ;
429 -> 430 ;
431 [label="gini = 0.0\nsamples = 1\nvalue = [1, 0, 0, 0, 0, 0, 0, 0, 0, 0, 0]"] ;
430 -> 431 ;
432 [label="gini = 0.0\nsamples = 1\nvalue = [0, 1, 0, 0, 0, 0, 0, 0, 0, 0, 0]"] ;
430 -> 432 ;
433 [label="X[4] <= 2.0\ngini = 0.5\nsamples = 2\nvalue = [1, 0, 0, 0, 0, 1, 0, 0, 0, 0, 0]"] ;
429 -> 433 ;
434 [label="gini = 0.0\nsamples = 1\nvalue = [0, 0, 0, 0, 0, 1, 0, 0, 0, 0, 0]"] ;
433 -> 434 ;
435 [label="gini = 0.0\nsamples = 1\nvalue = [1, 0, 0, 0, 0, 0, 0, 0, 0, 0, 0]"] ;
433 -> 435 ;
436 [label="X[4] <= 0.5\ngini = 0.542\nsamples = 12\nvalue = [4, 7, 0, 0, 0, 1, 0, 0, 0, 0, 0]"] ;
428 -> 436 ;
437 [label="gini = 0.0\nsamples = 3\nvalue = [0, 3, 0, 0, 0, 0, 0, 0, 0, 0, 0]"] ;
436 -> 437 ;
438 [label="X[4] <= 3.5\ngini = 0.593\nsamples = 9\nvalue = [4, 4, 0, 0, 0, 1, 0, 0, 0, 0, 0]"] ;
436 -> 438 ;
439 [label="X[4] <= 1.5\ngini = 0.571\nsamples = 7\nvalue = [4, 2, 0, 0, 0, 1, 0, 0, 0, 0, 0]"] ;
438 -> 439 ;
440 [label="X[2] <= 0.5\ngini = 0.64\nsamples = 5\nvalue = [2, 2, 0, 0, 0, 1, 0, 0, 0, 0, 0]"] ;
439 -> 440 ;
441 [label="gini = 0.5\nsamples = 2\nvalue = [0, 1, 0, 0, 0, 1, 0, 0, 0, 0, 0]"] ;
440 -> 441 ;
442 [label="gini = 0.444\nsamples = 3\nvalue = [2, 1, 0, 0, 0, 0, 0, 0, 0, 0, 0]"] ;
440 -> 442 ;
443 [label="gini = 0.0\nsamples = 2\nvalue = [2, 0, 0, 0, 0, 0, 0, 0, 0, 0, 0]"] ;
439 -> 443 ;
444 [label="gini = 0.0\nsamples = 2\nvalue = [0, 2, 0, 0, 0, 0, 0, 0, 0, 0, 0]"] ;
438 -> 444 ;
445 [label="gini = 0.0\nsamples = 2\nvalue = [0, 2, 0, 0, 0, 0, 0, 0, 0, 0, 0]"] ;
427 -> 445 ;
446 [label="X[0] <= 3.5\ngini = 0.449\nsamples = 7\nvalue = [5, 1, 0, 0, 0, 1, 0, 0, 0, 0, 0]"] ;
426 -> 446 ;
447 [label="X[2] <= 5.0\ngini = 0.625\nsamples = 4\nvalue = [2, 1, 0, 0, 0, 1, 0, 0, 0, 0, 0]"] ;
446 -> 447 ;
448 [label="X[4] <= 2.0\ngini = 0.444\nsamples = 3\nvalue = [2, 1, 0, 0, 0, 0, 0, 0, 0, 0, 0]"] ;
447 -> 448 ;
449 [label="gini = 0.0\nsamples = 2\nvalue = [2, 0, 0, 0, 0, 0, 0, 0, 0, 0, 0]"] ;
448 -> 449 ;
450 [label="gini = 0.0\nsamples = 1\nvalue = [0, 1, 0, 0, 0, 0, 0, 0, 0, 0, 0]"] ;
448 -> 450 ;
451 [label="gini = 0.0\nsamples = 1\nvalue = [0, 0, 0, 0, 0, 1, 0, 0, 0, 0, 0]"] ;
447 -> 451 ;
452 [label="gini = 0.0\nsamples = 3\nvalue = [3, 0, 0, 0, 0, 0, 0, 0, 0, 0, 0]"] ;
446 -> 452 ;
453 [label="X[1] <= 0.5\ngini = 0.375\nsamples = 4\nvalue = [0, 3, 0, 1, 0, 0, 0, 0, 0, 0, 0]"] ;
425 -> 453 ;
454 [label="X[0] <= 3.5\ngini = 0.5\nsamples = 2\nvalue = [0, 1, 0, 1, 0, 0, 0, 0, 0, 0, 0]"] ;
453 -> 454 ;
455 [label="gini = 0.0\nsamples = 1\nvalue = [0, 1, 0, 0, 0, 0, 0, 0, 0, 0, 0]"] ;
454 -> 455 ;
456 [label="gini = 0.0\nsamples = 1\nvalue = [0, 0, 0, 1, 0, 0, 0, 0, 0, 0, 0]"] ;
454 -> 456 ;
457 [label="gini = 0.0\nsamples = 2\nvalue = [0, 2, 0, 0, 0, 0, 0, 0, 0, 0, 0]"] ;
453 -> 457 ;
458 [label="X[2] <= 4.5\ngini = 0.519\nsamples = 9\nvalue = [1, 6, 0, 0, 0, 1, 0, 1, 0, 0, 0]"] ;
414 -> 458 ;
459 [label="X[4] <= 2.0\ngini = 0.245\nsamples = 7\nvalue = [0, 6, 0, 0, 0, 1, 0, 0, 0, 0, 0]"] ;
458 -> 459 ;
460 [label="X[1] <= 2.5\ngini = 0.375\nsamples = 4\nvalue = [0, 3, 0, 0, 0, 1, 0, 0, 0, 0, 0]"] ;
459 -> 460 ;
461 [label="X[0] <= 2.5\ngini = 0.5\nsamples = 2\nvalue = [0, 1, 0, 0, 0, 1, 0, 0, 0, 0, 0]"] ;
460 -> 461 ;
462 [label="gini = 0.0\nsamples = 1\nvalue = [0, 1, 0, 0, 0, 0, 0, 0, 0, 0, 0]"] ;
461 -> 462 ;
463 [label="gini = 0.0\nsamples = 1\nvalue = [0, 0, 0, 0, 0, 1, 0, 0, 0, 0, 0]"] ;
461 -> 463 ;
464 [label="gini = 0.0\nsamples = 2\nvalue = [0, 2, 0, 0, 0, 0, 0, 0, 0, 0, 0]"] ;
460 -> 464 ;
465 [label="gini = 0.0\nsamples = 3\nvalue = [0, 3, 0, 0, 0, 0, 0, 0, 0, 0, 0]"] ;
459 -> 465 ;
466 [label="X[2] <= 6.0\ngini = 0.5\nsamples = 2\nvalue = [1, 0, 0, 0, 0, 0, 0, 1, 0, 0, 0]"] ;
458 -> 466 ;
467 [label="gini = 0.0\nsamples = 1\nvalue = [0, 0, 0, 0, 0, 0, 0, 1, 0, 0, 0]"] ;
466 -> 467 ;
468 [label="gini = 0.0\nsamples = 1\nvalue = [1, 0, 0, 0, 0, 0, 0, 0, 0, 0, 0]"] ;
466 -> 468 ;
469 [label="X[4] <= 9.0\ngini = 0.609\nsamples = 16\nvalue = [9, 4, 0, 1, 0, 0, 1, 0, 1, 0, 0]"] ;
413 -> 469 ;
470 [label="X[2] <= 5.5\ngini = 0.56\nsamples = 15\nvalue = [9, 4, 0, 0, 0, 0, 1, 0, 1, 0, 0]"] ;
469 -> 470 ;
471 [label="X[2] <= 3.5\ngini = 0.625\nsamples = 12\nvalue = [6, 4, 0, 0, 0, 0, 1, 0, 1, 0, 0]"] ;
470 -> 471 ;
472 [label="X[2] <= 0.5\ngini = 0.406\nsamples = 8\nvalue = [6, 1, 0, 0, 0, 0, 1, 0, 0, 0, 0]"] ;
471 -> 472 ;
473 [label="X[1] <= 0.5\ngini = 0.625\nsamples = 4\nvalue = [2, 1, 0, 0, 0, 0, 1, 0, 0, 0, 0]"] ;
472 -> 473 ;
474 [label="gini = 0.0\nsamples = 1\nvalue = [0, 0, 0, 0, 0, 0, 1, 0, 0, 0, 0]"] ;
473 -> 474 ;
475 [label="X[1] <= 2.0\ngini = 0.444\nsamples = 3\nvalue = [2, 1, 0, 0, 0, 0, 0, 0, 0, 0, 0]"] ;
473 -> 475 ;
476 [label="X[4] <= 5.5\ngini = 0.5\nsamples = 2\nvalue = [1, 1, 0, 0, 0, 0, 0, 0, 0, 0, 0]"] ;
475 -> 476 ;
477 [label="gini = 0.0\nsamples = 1\nvalue = [0, 1, 0, 0, 0, 0, 0, 0, 0, 0, 0]"] ;
476 -> 477 ;
478 [label="gini = 0.0\nsamples = 1\nvalue = [1, 0, 0, 0, 0, 0, 0, 0, 0, 0, 0]"] ;
476 -> 478 ;
479 [label="gini = 0.0\nsamples = 1\nvalue = [1, 0, 0, 0, 0, 0, 0, 0, 0, 0, 0]"] ;
475 -> 479 ;
480 [label="gini = 0.0\nsamples = 4\nvalue = [4, 0, 0, 0, 0, 0, 0, 0, 0, 0, 0]"] ;
472 -> 480 ;
481 [label="X[4] <= 6.0\ngini = 0.375\nsamples = 4\nvalue = [0, 3, 0, 0, 0, 0, 0, 0, 1, 0, 0]"] ;
471 -> 481 ;
482 [label="gini = 0.5\nsamples = 2\nvalue = [0, 1, 0, 0, 0, 0, 0, 0, 1, 0, 0]"] ;
481 -> 482 ;
483 [label="gini = 0.0\nsamples = 2\nvalue = [0, 2, 0, 0, 0, 0, 0, 0, 0, 0, 0]"] ;
481 -> 483 ;
484 [label="gini = 0.0\nsamples = 3\nvalue = [3, 0, 0, 0, 0, 0, 0, 0, 0, 0, 0]"] ;
470 -> 484 ;
485 [label="gini = 0.0\nsamples = 1\nvalue = [0, 0, 0, 1, 0, 0, 0, 0, 0, 0, 0]"] ;
469 -> 485 ;
486 [label="X[2] <= 2.5\ngini = 0.753\nsamples = 43\nvalue = [19, 5, 0, 4, 0, 5, 4, 3, 1, 2, 0]"] ;
412 -> 486 ;
487 [label="X[0] <= 5.5\ngini = 0.647\nsamples = 30\nvalue = [17, 3, 0, 1, 0, 2, 1, 3, 1, 2, 0]"] ;
486 -> 487 ;
488 [label="X[1] <= 1.5\ngini = 0.34\nsamples = 10\nvalue = [8, 0, 0, 0, 0, 0, 1, 1, 0, 0, 0]"] ;
487 -> 488 ;
489 [label="X[2] <= 0.5\ngini = 0.219\nsamples = 8\nvalue = [7, 0, 0, 0, 0, 0, 0, 1, 0, 0, 0]"] ;
488 -> 489 ;
490 [label="X[1] <= 0.5\ngini = 0.444\nsamples = 3\nvalue = [2, 0, 0, 0, 0, 0, 0, 1, 0, 0, 0]"] ;
489 -> 490 ;
491 [label="gini = 0.0\nsamples = 2\nvalue = [2, 0, 0, 0, 0, 0, 0, 0, 0, 0, 0]"] ;
490 -> 491 ;
492 [label="gini = 0.0\nsamples = 1\nvalue = [0, 0, 0, 0, 0, 0, 0, 1, 0, 0, 0]"] ;
490 -> 492 ;
493 [label="gini = 0.0\nsamples = 5\nvalue = [5, 0, 0, 0, 0, 0, 0, 0, 0, 0, 0]"] ;
489 -> 493 ;
494 [label="X[4] <= 0.5\ngini = 0.5\nsamples = 2\nvalue = [1, 0, 0, 0, 0, 0, 1, 0, 0, 0, 0]"] ;
488 -> 494 ;
495 [label="gini = 0.0\nsamples = 1\nvalue = [1, 0, 0, 0, 0, 0, 0, 0, 0, 0, 0]"] ;
494 -> 495 ;
496 [label="gini = 0.0\nsamples = 1\nvalue = [0, 0, 0, 0, 0, 0, 1, 0, 0, 0, 0]"] ;
494 -> 496 ;
497 [label="X[4] <= 2.5\ngini = 0.74\nsamples = 20\nvalue = [9, 3, 0, 1, 0, 2, 0, 2, 1, 2, 0]"] ;
487 -> 497 ;
498 [label="X[2] <= 0.5\ngini = 0.778\nsamples = 12\nvalue = [4, 3, 0, 1, 0, 0, 0, 1, 1, 2, 0]"] ;
497 -> 498 ;
499 [label="X[4] <= 1.5\ngini = 0.56\nsamples = 5\nvalue = [3, 1, 0, 1, 0, 0, 0, 0, 0, 0, 0]"] ;
498 -> 499 ;
500 [label="X[4] <= 0.5\ngini = 0.375\nsamples = 4\nvalue = [3, 0, 0, 1, 0, 0, 0, 0, 0, 0, 0]"] ;
499 -> 500 ;
501 [label="gini = 0.0\nsamples = 2\nvalue = [2, 0, 0, 0, 0, 0, 0, 0, 0, 0, 0]"] ;
500 -> 501 ;
502 [label="gini = 0.5\nsamples = 2\nvalue = [1, 0, 0, 1, 0, 0, 0, 0, 0, 0, 0]"] ;
500 -> 502 ;
503 [label="gini = 0.0\nsamples = 1\nvalue = [0, 1, 0, 0, 0, 0, 0, 0, 0, 0, 0]"] ;
499 -> 503 ;
504 [label="X[1] <= 0.5\ngini = 0.776\nsamples = 7\nvalue = [1, 2, 0, 0, 0, 0, 0, 1, 1, 2, 0]"] ;
498 -> 504 ;
505 [label="gini = 0.0\nsamples = 1\nvalue = [0, 0, 0, 0, 0, 0, 0, 1, 0, 0, 0]"] ;
504 -> 505 ;
506 [label="X[0] <= 6.5\ngini = 0.722\nsamples = 6\nvalue = [1, 2, 0, 0, 0, 0, 0, 0, 1, 2, 0]"] ;
504 -> 506 ;
507 [label="X[4] <= 0.5\ngini = 0.444\nsamples = 3\nvalue = [0, 2, 0, 0, 0, 0, 0, 0, 0, 1, 0]"] ;
506 -> 507 ;
508 [label="gini = 0.0\nsamples = 1\nvalue = [0, 0, 0, 0, 0, 0, 0, 0, 0, 1, 0]"] ;
507 -> 508 ;
509 [label="gini = 0.0\nsamples = 2\nvalue = [0, 2, 0, 0, 0, 0, 0, 0, 0, 0, 0]"] ;
507 -> 509 ;
510 [label="X[1] <= 1.5\ngini = 0.667\nsamples = 3\nvalue = [1, 0, 0, 0, 0, 0, 0, 0, 1, 1, 0]"] ;
506 -> 510 ;
511 [label="gini = 0.5\nsamples = 2\nvalue = [1, 0, 0, 0, 0, 0, 0, 0, 1, 0, 0]"] ;
510 -> 511 ;
512 [label="gini = 0.0\nsamples = 1\nvalue = [0, 0, 0, 0, 0, 0, 0, 0, 0, 1, 0]"] ;
510 -> 512 ;
513 [label="X[4] <= 6.5\ngini = 0.531\nsamples = 8\nvalue = [5, 0, 0, 0, 0, 2, 0, 1, 0, 0, 0]"] ;
497 -> 513 ;
514 [label="X[4] <= 3.5\ngini = 0.32\nsamples = 5\nvalue = [4, 0, 0, 0, 0, 1, 0, 0, 0, 0, 0]"] ;
513 -> 514 ;
515 [label="gini = 0.0\nsamples = 2\nvalue = [2, 0, 0, 0, 0, 0, 0, 0, 0, 0, 0]"] ;
514 -> 515 ;
516 [label="X[4] <= 4.5\ngini = 0.444\nsamples = 3\nvalue = [2, 0, 0, 0, 0, 1, 0, 0, 0, 0, 0]"] ;
514 -> 516 ;
517 [label="gini = 0.0\nsamples = 1\nvalue = [0, 0, 0, 0, 0, 1, 0, 0, 0, 0, 0]"] ;
516 -> 517 ;
518 [label="gini = 0.0\nsamples = 2\nvalue = [2, 0, 0, 0, 0, 0, 0, 0, 0, 0, 0]"] ;
516 -> 518 ;
519 [label="X[4] <= 8.0\ngini = 0.667\nsamples = 3\nvalue = [1, 0, 0, 0, 0, 1, 0, 1, 0, 0, 0]"] ;
513 -> 519 ;
520 [label="X[2] <= 0.5\ngini = 0.5\nsamples = 2\nvalue = [0, 0, 0, 0, 0, 1, 0, 1, 0, 0, 0]"] ;
519 -> 520 ;
521 [label="gini = 0.0\nsamples = 1\nvalue = [0, 0, 0, 0, 0, 1, 0, 0, 0, 0, 0]"] ;
520 -> 521 ;
522 [label="gini = 0.0\nsamples = 1\nvalue = [0, 0, 0, 0, 0, 0, 0, 1, 0, 0, 0]"] ;
520 -> 522 ;
523 [label="gini = 0.0\nsamples = 1\nvalue = [1, 0, 0, 0, 0, 0, 0, 0, 0, 0, 0]"] ;
519 -> 523 ;
524 [label="X[0] <= 6.5\ngini = 0.793\nsamples = 13\nvalue = [2, 2, 0, 3, 0, 3, 3, 0, 0, 0, 0]"] ;
486 -> 524 ;
525 [label="X[1] <= 2.5\ngini = 0.656\nsamples = 8\nvalue = [2, 0, 0, 0, 0, 3, 3, 0, 0, 0, 0]"] ;
524 -> 525 ;
526 [label="X[0] <= 5.5\ngini = 0.611\nsamples = 6\nvalue = [2, 0, 0, 0, 0, 1, 3, 0, 0, 0, 0]"] ;
525 -> 526 ;
527 [label="X[2] <= 3.5\ngini = 0.625\nsamples = 4\nvalue = [2, 0, 0, 0, 0, 1, 1, 0, 0, 0, 0]"] ;
526 -> 527 ;
528 [label="gini = 0.0\nsamples = 1\nvalue = [0, 0, 0, 0, 0, 1, 0, 0, 0, 0, 0]"] ;
527 -> 528 ;
529 [label="X[4] <= 6.5\ngini = 0.444\nsamples = 3\nvalue = [2, 0, 0, 0, 0, 0, 1, 0, 0, 0, 0]"] ;
527 -> 529 ;
530 [label="gini = 0.0\nsamples = 2\nvalue = [2, 0, 0, 0, 0, 0, 0, 0, 0, 0, 0]"] ;
529 -> 530 ;
531 [label="gini = 0.0\nsamples = 1\nvalue = [0, 0, 0, 0, 0, 0, 1, 0, 0, 0, 0]"] ;
529 -> 531 ;
532 [label="gini = 0.0\nsamples = 2\nvalue = [0, 0, 0, 0, 0, 0, 2, 0, 0, 0, 0]"] ;
526 -> 532 ;
533 [label="gini = 0.0\nsamples = 2\nvalue = [0, 0, 0, 0, 0, 2, 0, 0, 0, 0, 0]"] ;
525 -> 533 ;
534 [label="X[1] <= 0.5\ngini = 0.48\nsamples = 5\nvalue = [0, 2, 0, 3, 0, 0, 0, 0, 0, 0, 0]"] ;
524 -> 534 ;
535 [label="X[2] <= 3.5\ngini = 0.444\nsamples = 3\nvalue = [0, 2, 0, 1, 0, 0, 0, 0, 0, 0, 0]"] ;
534 -> 535 ;
536 [label="gini = 0.0\nsamples = 1\nvalue = [0, 1, 0, 0, 0, 0, 0, 0, 0, 0, 0]"] ;
535 -> 536 ;
537 [label="X[4] <= 3.5\ngini = 0.5\nsamples = 2\nvalue = [0, 1, 0, 1, 0, 0, 0, 0, 0, 0, 0]"] ;
535 -> 537 ;
538 [label="gini = 0.0\nsamples = 1\nvalue = [0, 1, 0, 0, 0, 0, 0, 0, 0, 0, 0]"] ;
537 -> 538 ;
539 [label="gini = 0.0\nsamples = 1\nvalue = [0, 0, 0, 1, 0, 0, 0, 0, 0, 0, 0]"] ;
537 -> 539 ;
540 [label="gini = 0.0\nsamples = 2\nvalue = [0, 0, 0, 2, 0, 0, 0, 0, 0, 0, 0]"] ;
534 -> 540 ;
541 [label="X[1] <= 0.5\ngini = 0.795\nsamples = 521\nvalue = [128, 181, 4, 32, 28, 48, 27, 26, 29, 8, 10]"] ;
411 -> 541 ;
542 [label="X[3] <= 4.5\ngini = 0.729\nsamples = 135\nvalue = [32, 60, 1, 10, 8, 10, 5, 2, 3, 2, 2]"] ;
541 -> 542 ;
543 [label="X[4] <= 5.5\ngini = 0.753\nsamples = 114\nvalue = [29, 46, 1, 8, 8, 9, 5, 1, 3, 2, 2]"] ;
542 -> 543 ;
544 [label="X[2] <= 2.5\ngini = 0.745\nsamples = 98\nvalue = [22, 42, 1, 8, 8, 6, 5, 0, 3, 2, 1]"] ;
543 -> 544 ;
545 [label="X[4] <= 2.5\ngini = 0.678\nsamples = 66\nvalue = [18, 32, 0, 3, 5, 4, 2, 0, 1, 1, 0]"] ;
544 -> 545 ;
546 [label="X[0] <= 5.5\ngini = 0.632\nsamples = 47\nvalue = [15, 24, 0, 1, 1, 2, 2, 0, 1, 1, 0]"] ;
545 -> 546 ;
547 [label="X[3] <= 1.5\ngini = 0.657\nsamples = 37\nvalue = [13, 17, 0, 1, 1, 2, 2, 0, 1, 0, 0]"] ;
546 -> 547 ;
548 [label="X[0] <= 3.5\ngini = 0.623\nsamples = 18\nvalue = [4, 10, 0, 0, 0, 2, 1, 0, 1, 0, 0]"] ;
547 -> 548 ;
549 [label="X[4] <= 1.5\ngini = 0.32\nsamples = 5\nvalue = [0, 4, 0, 0, 0, 1, 0, 0, 0, 0, 0]"] ;
548 -> 549 ;
550 [label="gini = 0.0\nsamples = 4\nvalue = [0, 4, 0, 0, 0, 0, 0, 0, 0, 0, 0]"] ;
549 -> 550 ;
551 [label="gini = 0.0\nsamples = 1\nvalue = [0, 0, 0, 0, 0, 1, 0, 0, 0, 0, 0]"] ;
549 -> 551 ;
552 [label="X[2] <= 1.5\ngini = 0.675\nsamples = 13\nvalue = [4, 6, 0, 0, 0, 1, 1, 0, 1, 0, 0]"] ;
548 -> 552 ;
553 [label="X[4] <= 1.5\ngini = 0.694\nsamples = 12\nvalue = [4, 5, 0, 0, 0, 1, 1, 0, 1, 0, 0]"] ;
552 -> 553 ;
554 [label="X[4] <= 0.5\ngini = 0.64\nsamples = 10\nvalue = [3, 5, 0, 0, 0, 1, 0, 0, 1, 0, 0]"] ;
553 -> 554 ;
555 [label="X[2] <= 0.5\ngini = 0.667\nsamples = 3\nvalue = [1, 1, 0, 0, 0, 1, 0, 0, 0, 0, 0]"] ;
554 -> 555 ;
556 [label="gini = 0.0\nsamples = 1\nvalue = [1, 0, 0, 0, 0, 0, 0, 0, 0, 0, 0]"] ;
555 -> 556 ;
557 [label="gini = 0.5\nsamples = 2\nvalue = [0, 1, 0, 0, 0, 1, 0, 0, 0, 0, 0]"] ;
555 -> 557 ;
558 [label="X[2] <= 0.5\ngini = 0.571\nsamples = 7\nvalue = [2, 4, 0, 0, 0, 0, 0, 0, 1, 0, 0]"] ;
554 -> 558 ;
559 [label="X[0] <= 4.5\ngini = 0.5\nsamples = 2\nvalue = [0, 1, 0, 0, 0, 0, 0, 0, 1, 0, 0]"] ;
558 -> 559 ;
560 [label="gini = 0.0\nsamples = 1\nvalue = [0, 0, 0, 0, 0, 0, 0, 0, 1, 0, 0]"] ;
559 -> 560 ;
561 [label="gini = 0.0\nsamples = 1\nvalue = [0, 1, 0, 0, 0, 0, 0, 0, 0, 0, 0]"] ;
559 -> 561 ;
562 [label="X[0] <= 4.5\ngini = 0.48\nsamples = 5\nvalue = [2, 3, 0, 0, 0, 0, 0, 0, 0, 0, 0]"] ;
558 -> 562 ;
563 [label="gini = 0.375\nsamples = 4\nvalue = [1, 3, 0, 0, 0, 0, 0, 0, 0, 0, 0]"] ;
562 -> 563 ;
564 [label="gini = 0.0\nsamples = 1\nvalue = [1, 0, 0, 0, 0, 0, 0, 0, 0, 0, 0]"] ;
562 -> 564 ;
565 [label="gini = 0.5\nsamples = 2\nvalue = [1, 0, 0, 0, 0, 0, 1, 0, 0, 0, 0]"] ;
553 -> 565 ;
566 [label="gini = 0.0\nsamples = 1\nvalue = [0, 1, 0, 0, 0, 0, 0, 0, 0, 0, 0]"] ;
552 -> 566 ;
567 [label="X[4] <= 0.5\ngini = 0.632\nsamples = 19\nvalue = [9, 7, 0, 1, 1, 0, 1, 0, 0, 0, 0]"] ;
547 -> 567 ;
568 [label="X[2] <= 1.5\ngini = 0.531\nsamples = 8\nvalue = [5, 2, 0, 0, 1, 0, 0, 0, 0, 0, 0]"] ;
567 -> 568 ;
569 [label="X[3] <= 3.5\ngini = 0.449\nsamples = 7\nvalue = [5, 1, 0, 0, 1, 0, 0, 0, 0, 0, 0]"] ;
568 -> 569 ;
570 [label="gini = 0.0\nsamples = 3\nvalue = [3, 0, 0, 0, 0, 0, 0, 0, 0, 0, 0]"] ;
569 -> 570 ;
571 [label="X[0] <= 3.5\ngini = 0.625\nsamples = 4\nvalue = [2, 1, 0, 0, 1, 0, 0, 0, 0, 0, 0]"] ;
569 -> 571 ;
572 [label="gini = 0.0\nsamples = 1\nvalue = [0, 0, 0, 0, 1, 0, 0, 0, 0, 0, 0]"] ;
571 -> 572 ;
573 [label="gini = 0.444\nsamples = 3\nvalue = [2, 1, 0, 0, 0, 0, 0, 0, 0, 0, 0]"] ;
571 -> 573 ;
574 [label="gini = 0.0\nsamples = 1\nvalue = [0, 1, 0, 0, 0, 0, 0, 0, 0, 0, 0]"] ;
568 -> 574 ;
575 [label="X[2] <= 0.5\ngini = 0.645\nsamples = 11\nvalue = [4, 5, 0, 1, 0, 0, 1, 0, 0, 0, 0]"] ;
567 -> 575 ;
576 [label="X[0] <= 3.5\ngini = 0.375\nsamples = 4\nvalue = [0, 3, 0, 1, 0, 0, 0, 0, 0, 0, 0]"] ;
575 -> 576 ;
577 [label="gini = 0.0\nsamples = 1\nvalue = [0, 1, 0, 0, 0, 0, 0, 0, 0, 0, 0]"] ;
576 -> 577 ;
578 [label="X[0] <= 4.5\ngini = 0.444\nsamples = 3\nvalue = [0, 2, 0, 1, 0, 0, 0, 0, 0, 0, 0]"] ;
576 -> 578 ;
579 [label="gini = 0.5\nsamples = 2\nvalue = [0, 1, 0, 1, 0, 0, 0, 0, 0, 0, 0]"] ;
578 -> 579 ;
580 [label="gini = 0.0\nsamples = 1\nvalue = [0, 1, 0, 0, 0, 0, 0, 0, 0, 0, 0]"] ;
578 -> 580 ;
581 [label="X[2] <= 1.5\ngini = 0.571\nsamples = 7\nvalue = [4, 2, 0, 0, 0, 0, 1, 0, 0, 0, 0]"] ;
575 -> 581 ;
582 [label="X[0] <= 3.5\ngini = 0.64\nsamples = 5\nvalue = [2, 2, 0, 0, 0, 0, 1, 0, 0, 0, 0]"] ;
581 -> 582 ;
583 [label="X[4] <= 1.5\ngini = 0.5\nsamples = 2\nvalue = [0, 1, 0, 0, 0, 0, 1, 0, 0, 0, 0]"] ;
582 -> 583 ;
584 [label="gini = 0.0\nsamples = 1\nvalue = [0, 1, 0, 0, 0, 0, 0, 0, 0, 0, 0]"] ;
583 -> 584 ;
585 [label="gini = 0.0\nsamples = 1\nvalue = [0, 0, 0, 0, 0, 0, 1, 0, 0, 0, 0]"] ;
583 -> 585 ;
586 [label="X[3] <= 3.5\ngini = 0.444\nsamples = 3\nvalue = [2, 1, 0, 0, 0, 0, 0, 0, 0, 0, 0]"] ;
582 -> 586 ;
587 [label="gini = 0.0\nsamples = 1\nvalue = [1, 0, 0, 0, 0, 0, 0, 0, 0, 0, 0]"] ;
586 -> 587 ;
588 [label="X[4] <= 1.5\ngini = 0.5\nsamples = 2\nvalue = [1, 1, 0, 0, 0, 0, 0, 0, 0, 0, 0]"] ;
586 -> 588 ;
589 [label="gini = 0.0\nsamples = 1\nvalue = [1, 0, 0, 0, 0, 0, 0, 0, 0, 0, 0]"] ;
588 -> 589 ;
590 [label="gini = 0.0\nsamples = 1\nvalue = [0, 1, 0, 0, 0, 0, 0, 0, 0, 0, 0]"] ;
588 -> 590 ;
591 [label="gini = 0.0\nsamples = 2\nvalue = [2, 0, 0, 0, 0, 0, 0, 0, 0, 0, 0]"] ;
581 -> 591 ;
592 [label="X[3] <= 2.0\ngini = 0.46\nsamples = 10\nvalue = [2, 7, 0, 0, 0, 0, 0, 0, 0, 1, 0]"] ;
546 -> 592 ;
593 [label="X[2] <= 0.5\ngini = 0.64\nsamples = 5\nvalue = [2, 2, 0, 0, 0, 0, 0, 0, 0, 1, 0]"] ;
592 -> 593 ;
594 [label="X[4] <= 0.5\ngini = 0.5\nsamples = 4\nvalue = [2, 2, 0, 0, 0, 0, 0, 0, 0, 0, 0]"] ;
593 -> 594 ;
595 [label="gini = 0.0\nsamples = 1\nvalue = [0, 1, 0, 0, 0, 0, 0, 0, 0, 0, 0]"] ;
594 -> 595 ;
596 [label="X[0] <= 6.5\ngini = 0.444\nsamples = 3\nvalue = [2, 1, 0, 0, 0, 0, 0, 0, 0, 0, 0]"] ;
594 -> 596 ;
597 [label="gini = 0.5\nsamples = 2\nvalue = [1, 1, 0, 0, 0, 0, 0, 0, 0, 0, 0]"] ;
596 -> 597 ;
598 [label="gini = 0.0\nsamples = 1\nvalue = [1, 0, 0, 0, 0, 0, 0, 0, 0, 0, 0]"] ;
596 -> 598 ;
599 [label="gini = 0.0\nsamples = 1\nvalue = [0, 0, 0, 0, 0, 0, 0, 0, 0, 1, 0]"] ;
593 -> 599 ;
600 [label="gini = 0.0\nsamples = 5\nvalue = [0, 5, 0, 0, 0, 0, 0, 0, 0, 0, 0]"] ;
592 -> 600 ;
601 [label="X[3] <= 1.5\ngini = 0.731\nsamples = 19\nvalue = [3, 8, 0, 2, 4, 2, 0, 0, 0, 0, 0]"] ;
545 -> 601 ;
602 [label="X[4] <= 3.5\ngini = 0.64\nsamples = 10\nvalue = [3, 5, 0, 0, 1, 1, 0, 0, 0, 0, 0]"] ;
601 -> 602 ;
603 [label="X[0] <= 4.0\ngini = 0.5\nsamples = 2\nvalue = [1, 0, 0, 0, 0, 1, 0, 0, 0, 0, 0]"] ;
602 -> 603 ;
604 [label="gini = 0.0\nsamples = 1\nvalue = [1, 0, 0, 0, 0, 0, 0, 0, 0, 0, 0]"] ;
603 -> 604 ;
605 [label="gini = 0.0\nsamples = 1\nvalue = [0, 0, 0, 0, 0, 1, 0, 0, 0, 0, 0]"] ;
603 -> 605 ;
606 [label="X[2] <= 0.5\ngini = 0.531\nsamples = 8\nvalue = [2, 5, 0, 0, 1, 0, 0, 0, 0, 0, 0]"] ;
602 -> 606 ;
607 [label="X[0] <= 5.5\ngini = 0.667\nsamples = 3\nvalue = [1, 1, 0, 0, 1, 0, 0, 0, 0, 0, 0]"] ;
606 -> 607 ;
608 [label="gini = 0.5\nsamples = 2\nvalue = [1, 0, 0, 0, 1, 0, 0, 0, 0, 0, 0]"] ;
607 -> 608 ;
609 [label="gini = 0.0\nsamples = 1\nvalue = [0, 1, 0, 0, 0, 0, 0, 0, 0, 0, 0]"] ;
607 -> 609 ;
610 [label="X[0] <= 5.5\ngini = 0.32\nsamples = 5\nvalue = [1, 4, 0, 0, 0, 0, 0, 0, 0, 0, 0]"] ;
606 -> 610 ;
611 [label="gini = 0.0\nsamples = 3\nvalue = [0, 3, 0, 0, 0, 0, 0, 0, 0, 0, 0]"] ;
610 -> 611 ;
612 [label="X[0] <= 6.5\ngini = 0.5\nsamples = 2\nvalue = [1, 1, 0, 0, 0, 0, 0, 0, 0, 0, 0]"] ;
610 -> 612 ;
613 [label="gini = 0.0\nsamples = 1\nvalue = [1, 0, 0, 0, 0, 0, 0, 0, 0, 0, 0]"] ;
612 -> 613 ;
614 [label="gini = 0.0\nsamples = 1\nvalue = [0, 1, 0, 0, 0, 0, 0, 0, 0, 0, 0]"] ;
612 -> 614 ;
615 [label="X[2] <= 0.5\ngini = 0.716\nsamples = 9\nvalue = [0, 3, 0, 2, 3, 1, 0, 0, 0, 0, 0]"] ;
601 -> 615 ;
616 [label="gini = 0.0\nsamples = 3\nvalue = [0, 3, 0, 0, 0, 0, 0, 0, 0, 0, 0]"] ;
615 -> 616 ;
617 [label="X[3] <= 3.5\ngini = 0.611\nsamples = 6\nvalue = [0, 0, 0, 2, 3, 1, 0, 0, 0, 0, 0]"] ;
615 -> 617 ;
618 [label="X[4] <= 3.5\ngini = 0.625\nsamples = 4\nvalue = [0, 0, 0, 2, 1, 1, 0, 0, 0, 0, 0]"] ;
617 -> 618 ;
619 [label="gini = 0.0\nsamples = 1\nvalue = [0, 0, 0, 0, 0, 1, 0, 0, 0, 0, 0]"] ;
618 -> 619 ;
620 [label="X[2] <= 1.5\ngini = 0.444\nsamples = 3\nvalue = [0, 0, 0, 2, 1, 0, 0, 0, 0, 0, 0]"] ;
618 -> 620 ;
621 [label="gini = 0.0\nsamples = 2\nvalue = [0, 0, 0, 2, 0, 0, 0, 0, 0, 0, 0]"] ;
620 -> 621 ;
622 [label="gini = 0.0\nsamples = 1\nvalue = [0, 0, 0, 0, 1, 0, 0, 0, 0, 0, 0]"] ;
620 -> 622 ;
623 [label="gini = 0.0\nsamples = 2\nvalue = [0, 0, 0, 0, 2, 0, 0, 0, 0, 0, 0]"] ;
617 -> 623 ;
624 [label="X[2] <= 4.5\ngini = 0.834\nsamples = 32\nvalue = [4, 10, 1, 5, 3, 2, 3, 0, 2, 1, 1]"] ;
544 -> 624 ;
625 [label="X[0] <= 3.5\ngini = 0.88\nsamples = 15\nvalue = [2, 2, 0, 2, 2, 2, 1, 0, 2, 1, 1]"] ;
624 -> 625 ;
626 [label="X[2] <= 3.5\ngini = 0.444\nsamples = 3\nvalue = [0, 0, 0, 0, 0, 2, 0, 0, 1, 0, 0]"] ;
625 -> 626 ;
627 [label="gini = 0.0\nsamples = 1\nvalue = [0, 0, 0, 0, 0, 1, 0, 0, 0, 0, 0]"] ;
626 -> 627 ;
628 [label="X[3] <= 1.5\ngini = 0.5\nsamples = 2\nvalue = [0, 0, 0, 0, 0, 1, 0, 0, 1, 0, 0]"] ;
626 -> 628 ;
629 [label="gini = 0.0\nsamples = 1\nvalue = [0, 0, 0, 0, 0, 0, 0, 0, 1, 0, 0]"] ;
628 -> 629 ;
630 [label="gini = 0.0\nsamples = 1\nvalue = [0, 0, 0, 0, 0, 1, 0, 0, 0, 0, 0]"] ;
628 -> 630 ;
631 [label="X[4] <= 0.5\ngini = 0.861\nsamples = 12\nvalue = [2, 2, 0, 2, 2, 0, 1, 0, 1, 1, 1]"] ;
625 -> 631 ;
632 [label="X[3] <= 2.0\ngini = 0.625\nsamples = 4\nvalue = [2, 1, 0, 1, 0, 0, 0, 0, 0, 0, 0]"] ;
631 -> 632 ;
633 [label="gini = 0.5\nsamples = 2\nvalue = [0, 1, 0, 1, 0, 0, 0, 0, 0, 0, 0]"] ;
632 -> 633 ;
634 [label="gini = 0.0\nsamples = 2\nvalue = [2, 0, 0, 0, 0, 0, 0, 0, 0, 0, 0]"] ;
632 -> 634 ;
635 [label="X[0] <= 5.5\ngini = 0.844\nsamples = 8\nvalue = [0, 1, 0, 1, 2, 0, 1, 0, 1, 1, 1]"] ;
631 -> 635 ;
636 [label="X[4] <= 2.5\ngini = 0.5\nsamples = 2\nvalue = [0, 0, 0, 0, 0, 0, 0, 0, 1, 0, 1]"] ;
635 -> 636 ;
637 [label="gini = 0.0\nsamples = 1\nvalue = [0, 0, 0, 0, 0, 0, 0, 0, 1, 0, 0]"] ;
636 -> 637 ;
638 [label="gini = 0.0\nsamples = 1\nvalue = [0, 0, 0, 0, 0, 0, 0, 0, 0, 0, 1]"] ;
636 -> 638 ;
639 [label="X[3] <= 1.5\ngini = 0.778\nsamples = 6\nvalue = [0, 1, 0, 1, 2, 0, 1, 0, 0, 1, 0]"] ;
635 -> 639 ;
640 [label="X[4] <= 2.5\ngini = 0.5\nsamples = 2\nvalue = [0, 1, 0, 0, 1, 0, 0, 0, 0, 0, 0]"] ;
639 -> 640 ;
641 [label="gini = 0.0\nsamples = 1\nvalue = [0, 1, 0, 0, 0, 0, 0, 0, 0, 0, 0]"] ;
640 -> 641 ;
642 [label="gini = 0.0\nsamples = 1\nvalue = [0, 0, 0, 0, 1, 0, 0, 0, 0, 0, 0]"] ;
640 -> 642 ;
643 [label="X[4] <= 1.5\ngini = 0.75\nsamples = 4\nvalue = [0, 0, 0, 1, 1, 0, 1, 0, 0, 1, 0]"] ;
639 -> 643 ;
644 [label="X[3] <= 3.5\ngini = 0.5\nsamples = 2\nvalue = [0, 0, 0, 1, 1, 0, 0, 0, 0, 0, 0]"] ;
643 -> 644 ;
645 [label="gini = 0.0\nsamples = 1\nvalue = [0, 0, 0, 1, 0, 0, 0, 0, 0, 0, 0]"] ;
644 -> 645 ;
646 [label="gini = 0.0\nsamples = 1\nvalue = [0, 0, 0, 0, 1, 0, 0, 0, 0, 0, 0]"] ;
644 -> 646 ;
647 [label="X[3] <= 3.0\ngini = 0.5\nsamples = 2\nvalue = [0, 0, 0, 0, 0, 0, 1, 0, 0, 1, 0]"] ;
643 -> 647 ;
648 [label="gini = 0.0\nsamples = 1\nvalue = [0, 0, 0, 0, 0, 0, 1, 0, 0, 0, 0]"] ;
647 -> 648 ;
649 [label="gini = 0.0\nsamples = 1\nvalue = [0, 0, 0, 0, 0, 0, 0, 0, 0, 1, 0]"] ;
647 -> 649 ;
650 [label="X[3] <= 2.5\ngini = 0.713\nsamples = 17\nvalue = [2, 8, 1, 3, 1, 0, 2, 0, 0, 0, 0]"] ;
624 -> 650 ;
651 [label="X[4] <= 2.5\ngini = 0.719\nsamples = 8\nvalue = [1, 2, 0, 3, 0, 0, 2, 0, 0, 0, 0]"] ;
650 -> 651 ;
652 [label="X[4] <= 0.5\ngini = 0.722\nsamples = 6\nvalue = [1, 2, 0, 1, 0, 0, 2, 0, 0, 0, 0]"] ;
651 -> 652 ;
653 [label="gini = 0.0\nsamples = 1\nvalue = [0, 0, 0, 1, 0, 0, 0, 0, 0, 0, 0]"] ;
652 -> 653 ;
654 [label="X[4] <= 1.5\ngini = 0.64\nsamples = 5\nvalue = [1, 2, 0, 0, 0, 0, 2, 0, 0, 0, 0]"] ;
652 -> 654 ;
655 [label="X[0] <= 4.0\ngini = 0.5\nsamples = 4\nvalue = [0, 2, 0, 0, 0, 0, 2, 0, 0, 0, 0]"] ;
654 -> 655 ;
656 [label="gini = 0.0\nsamples = 1\nvalue = [0, 1, 0, 0, 0, 0, 0, 0, 0, 0, 0]"] ;
655 -> 656 ;
657 [label="X[0] <= 6.5\ngini = 0.444\nsamples = 3\nvalue = [0, 1, 0, 0, 0, 0, 2, 0, 0, 0, 0]"] ;
655 -> 657 ;
658 [label="gini = 0.0\nsamples = 2\nvalue = [0, 0, 0, 0, 0, 0, 2, 0, 0, 0, 0]"] ;
657 -> 658 ;
659 [label="gini = 0.0\nsamples = 1\nvalue = [0, 1, 0, 0, 0, 0, 0, 0, 0, 0, 0]"] ;
657 -> 659 ;
660 [label="gini = 0.0\nsamples = 1\nvalue = [1, 0, 0, 0, 0, 0, 0, 0, 0, 0, 0]"] ;
654 -> 660 ;
661 [label="gini = 0.0\nsamples = 2\nvalue = [0, 0, 0, 2, 0, 0, 0, 0, 0, 0, 0]"] ;
651 -> 661 ;
662 [label="X[0] <= 6.0\ngini = 0.519\nsamples = 9\nvalue = [1, 6, 1, 0, 1, 0, 0, 0, 0, 0, 0]"] ;
650 -> 662 ;
663 [label="X[2] <= 6.0\ngini = 0.278\nsamples = 6\nvalue = [1, 5, 0, 0, 0, 0, 0, 0, 0, 0, 0]"] ;
662 -> 663 ;
664 [label="X[0] <= 3.0\ngini = 0.444\nsamples = 3\nvalue = [1, 2, 0, 0, 0, 0, 0, 0, 0, 0, 0]"] ;
663 -> 664 ;
665 [label="gini = 0.0\nsamples = 1\nvalue = [0, 1, 0, 0, 0, 0, 0, 0, 0, 0, 0]"] ;
664 -> 665 ;
666 [label="X[4] <= 3.5\ngini = 0.5\nsamples = 2\nvalue = [1, 1, 0, 0, 0, 0, 0, 0, 0, 0, 0]"] ;
664 -> 666 ;
667 [label="gini = 0.0\nsamples = 1\nvalue = [0, 1, 0, 0, 0, 0, 0, 0, 0, 0, 0]"] ;
666 -> 667 ;
668 [label="gini = 0.0\nsamples = 1\nvalue = [1, 0, 0, 0, 0, 0, 0, 0, 0, 0, 0]"] ;
666 -> 668 ;
669 [label="gini = 0.0\nsamples = 3\nvalue = [0, 3, 0, 0, 0, 0, 0, 0, 0, 0, 0]"] ;
663 -> 669 ;
670 [label="X[3] <= 3.5\ngini = 0.667\nsamples = 3\nvalue = [0, 1, 1, 0, 1, 0, 0, 0, 0, 0, 0]"] ;
662 -> 670 ;
671 [label="gini = 0.0\nsamples = 1\nvalue = [0, 1, 0, 0, 0, 0, 0, 0, 0, 0, 0]"] ;
670 -> 671 ;
672 [label="X[2] <= 6.5\ngini = 0.5\nsamples = 2\nvalue = [0, 0, 1, 0, 1, 0, 0, 0, 0, 0, 0]"] ;
670 -> 672 ;
673 [label="gini = 0.0\nsamples = 1\nvalue = [0, 0, 1, 0, 0, 0, 0, 0, 0, 0, 0]"] ;
672 -> 673 ;
674 [label="gini = 0.0\nsamples = 1\nvalue = [0, 0, 0, 0, 1, 0, 0, 0, 0, 0, 0]"] ;
672 -> 674 ;
675 [label="X[0] <= 4.5\ngini = 0.703\nsamples = 16\nvalue = [7, 4, 0, 0, 0, 3, 0, 1, 0, 0, 1]"] ;
543 -> 675 ;
676 [label="X[3] <= 2.5\ngini = 0.32\nsamples = 5\nvalue = [4, 1, 0, 0, 0, 0, 0, 0, 0, 0, 0]"] ;
675 -> 676 ;
677 [label="gini = 0.0\nsamples = 3\nvalue = [3, 0, 0, 0, 0, 0, 0, 0, 0, 0, 0]"] ;
676 -> 677 ;
678 [label="X[2] <= 3.0\ngini = 0.5\nsamples = 2\nvalue = [1, 1, 0, 0, 0, 0, 0, 0, 0, 0, 0]"] ;
676 -> 678 ;
679 [label="gini = 0.0\nsamples = 1\nvalue = [1, 0, 0, 0, 0, 0, 0, 0, 0, 0, 0]"] ;
678 -> 679 ;
680 [label="gini = 0.0\nsamples = 1\nvalue = [0, 1, 0, 0, 0, 0, 0, 0, 0, 0, 0]"] ;
678 -> 680 ;
681 [label="X[2] <= 2.5\ngini = 0.76\nsamples = 11\nvalue = [3, 3, 0, 0, 0, 3, 0, 1, 0, 0, 1]"] ;
675 -> 681 ;
682 [label="X[3] <= 3.0\ngini = 0.722\nsamples = 6\nvalue = [0, 2, 0, 0, 0, 2, 0, 1, 0, 0, 1]"] ;
681 -> 682 ;
683 [label="X[3] <= 1.5\ngini = 0.625\nsamples = 4\nvalue = [0, 2, 0, 0, 0, 0, 0, 1, 0, 0, 1]"] ;
682 -> 683 ;
684 [label="X[2] <= 0.5\ngini = 0.444\nsamples = 3\nvalue = [0, 2, 0, 0, 0, 0, 0, 0, 0, 0, 1]"] ;
683 -> 684 ;
685 [label="gini = 0.0\nsamples = 1\nvalue = [0, 1, 0, 0, 0, 0, 0, 0, 0, 0, 0]"] ;
684 -> 685 ;
686 [label="X[4] <= 7.5\ngini = 0.5\nsamples = 2\nvalue = [0, 1, 0, 0, 0, 0, 0, 0, 0, 0, 1]"] ;
684 -> 686 ;
687 [label="gini = 0.0\nsamples = 1\nvalue = [0, 0, 0, 0, 0, 0, 0, 0, 0, 0, 1]"] ;
686 -> 687 ;
688 [label="gini = 0.0\nsamples = 1\nvalue = [0, 1, 0, 0, 0, 0, 0, 0, 0, 0, 0]"] ;
686 -> 688 ;
689 [label="gini = 0.0\nsamples = 1\nvalue = [0, 0, 0, 0, 0, 0, 0, 1, 0, 0, 0]"] ;
683 -> 689 ;
690 [label="gini = 0.0\nsamples = 2\nvalue = [0, 0, 0, 0, 0, 2, 0, 0, 0, 0, 0]"] ;
682 -> 690 ;
691 [label="X[2] <= 8.5\ngini = 0.56\nsamples = 5\nvalue = [3, 1, 0, 0, 0, 1, 0, 0, 0, 0, 0]"] ;
681 -> 691 ;
692 [label="X[4] <= 6.5\ngini = 0.375\nsamples = 4\nvalue = [3, 0, 0, 0, 0, 1, 0, 0, 0, 0, 0]"] ;
691 -> 692 ;
693 [label="gini = 0.0\nsamples = 2\nvalue = [2, 0, 0, 0, 0, 0, 0, 0, 0, 0, 0]"] ;
692 -> 693 ;
694 [label="X[2] <= 4.0\ngini = 0.5\nsamples = 2\nvalue = [1, 0, 0, 0, 0, 1, 0, 0, 0, 0, 0]"] ;
692 -> 694 ;
695 [label="gini = 0.0\nsamples = 1\nvalue = [1, 0, 0, 0, 0, 0, 0, 0, 0, 0, 0]"] ;
694 -> 695 ;
696 [label="gini = 0.0\nsamples = 1\nvalue = [0, 0, 0, 0, 0, 1, 0, 0, 0, 0, 0]"] ;
694 -> 696 ;
697 [label="gini = 0.0\nsamples = 1\nvalue = [0, 1, 0, 0, 0, 0, 0, 0, 0, 0, 0]"] ;
691 -> 697 ;
698 [label="X[0] <= 4.5\ngini = 0.522\nsamples = 21\nvalue = [3, 14, 0, 2, 0, 1, 0, 1, 0, 0, 0]"] ;
542 -> 698 ;
699 [label="X[2] <= 5.0\ngini = 0.653\nsamples = 7\nvalue = [2, 3, 0, 2, 0, 0, 0, 0, 0, 0, 0]"] ;
698 -> 699 ;
700 [label="X[0] <= 3.5\ngini = 0.48\nsamples = 5\nvalue = [0, 3, 0, 2, 0, 0, 0, 0, 0, 0, 0]"] ;
699 -> 700 ;
701 [label="gini = 0.0\nsamples = 2\nvalue = [0, 2, 0, 0, 0, 0, 0, 0, 0, 0, 0]"] ;
700 -> 701 ;
702 [label="X[2] <= 2.5\ngini = 0.444\nsamples = 3\nvalue = [0, 1, 0, 2, 0, 0, 0, 0, 0, 0, 0]"] ;
700 -> 702 ;
703 [label="gini = 0.0\nsamples = 2\nvalue = [0, 0, 0, 2, 0, 0, 0, 0, 0, 0, 0]"] ;
702 -> 703 ;
704 [label="gini = 0.0\nsamples = 1\nvalue = [0, 1, 0, 0, 0, 0, 0, 0, 0, 0, 0]"] ;
702 -> 704 ;
705 [label="gini = 0.0\nsamples = 2\nvalue = [2, 0, 0, 0, 0, 0, 0, 0, 0, 0, 0]"] ;
699 -> 705 ;
706 [label="X[4] <= 1.5\ngini = 0.367\nsamples = 14\nvalue = [1, 11, 0, 0, 0, 1, 0, 1, 0, 0, 0]"] ;
698 -> 706 ;
707 [label="X[2] <= 2.0\ngini = 0.562\nsamples = 8\nvalue = [1, 5, 0, 0, 0, 1, 0, 1, 0, 0, 0]"] ;
706 -> 707 ;
708 [label="X[0] <= 5.5\ngini = 0.75\nsamples = 4\nvalue = [1, 1, 0, 0, 0, 1, 0, 1, 0, 0, 0]"] ;
707 -> 708 ;
709 [label="gini = 0.0\nsamples = 1\nvalue = [1, 0, 0, 0, 0, 0, 0, 0, 0, 0, 0]"] ;
708 -> 709 ;
710 [label="X[0] <= 6.5\ngini = 0.667\nsamples = 3\nvalue = [0, 1, 0, 0, 0, 1, 0, 1, 0, 0, 0]"] ;
708 -> 710 ;
711 [label="X[2] <= 0.5\ngini = 0.5\nsamples = 2\nvalue = [0, 1, 0, 0, 0, 1, 0, 0, 0, 0, 0]"] ;
710 -> 711 ;
712 [label="gini = 0.0\nsamples = 1\nvalue = [0, 1, 0, 0, 0, 0, 0, 0, 0, 0, 0]"] ;
711 -> 712 ;
713 [label="gini = 0.0\nsamples = 1\nvalue = [0, 0, 0, 0, 0, 1, 0, 0, 0, 0, 0]"] ;
711 -> 713 ;
714 [label="gini = 0.0\nsamples = 1\nvalue = [0, 0, 0, 0, 0, 0, 0, 1, 0, 0, 0]"] ;
710 -> 714 ;
715 [label="gini = 0.0\nsamples = 4\nvalue = [0, 4, 0, 0, 0, 0, 0, 0, 0, 0, 0]"] ;
707 -> 715 ;
716 [label="gini = 0.0\nsamples = 6\nvalue = [0, 6, 0, 0, 0, 0, 0, 0, 0, 0, 0]"] ;
706 -> 716 ;
717 [label="X[4] <= 6.5\ngini = 0.812\nsamples = 386\nvalue = [96, 121, 3, 22, 20, 38, 22, 24, 26, 6, 8]"] ;
541 -> 717 ;
718 [label="X[4] <= 3.5\ngini = 0.799\nsamples = 346\nvalue = [89, 115, 3, 19, 17, 33, 18, 19, 20, 6, 7]"] ;
717 -> 718 ;
719 [label="X[2] <= 8.5\ngini = 0.799\nsamples = 201\nvalue = [59, 60, 2, 10, 7, 17, 12, 13, 17, 1, 3]"] ;
718 -> 719 ;
720 [label="X[1] <= 1.5\ngini = 0.803\nsamples = 191\nvalue = [51, 60, 2, 10, 7, 16, 12, 12, 17, 1, 3]"] ;
719 -> 720 ;
721 [label="X[0] <= 3.5\ngini = 0.776\nsamples = 125\nvalue = [32, 46, 2, 4, 5, 8, 4, 8, 13, 1, 2]"] ;
720 -> 721 ;
722 [label="X[3] <= 4.5\ngini = 0.587\nsamples = 22\nvalue = [5, 13, 0, 0, 0, 0, 1, 2, 1, 0, 0]"] ;
721 -> 722 ;
723 [label="X[4] <= 0.5\ngini = 0.53\nsamples = 20\nvalue = [4, 13, 0, 0, 0, 0, 1, 1, 1, 0, 0]"] ;
722 -> 723 ;
724 [label="gini = 0.0\nsamples = 4\nvalue = [0, 4, 0, 0, 0, 0, 0, 0, 0, 0, 0]"] ;
723 -> 724 ;
725 [label="X[3] <= 1.5\ngini = 0.609\nsamples = 16\nvalue = [4, 9, 0, 0, 0, 0, 1, 1, 1, 0, 0]"] ;
723 -> 725 ;
726 [label="X[2] <= 5.5\ngini = 0.694\nsamples = 7\nvalue = [3, 2, 0, 0, 0, 0, 1, 1, 0, 0, 0]"] ;
725 -> 726 ;
727 [label="X[2] <= 1.5\ngini = 0.611\nsamples = 6\nvalue = [3, 2, 0, 0, 0, 0, 0, 1, 0, 0, 0]"] ;
726 -> 727 ;
728 [label="X[2] <= 0.5\ngini = 0.5\nsamples = 4\nvalue = [2, 2, 0, 0, 0, 0, 0, 0, 0, 0, 0]"] ;
727 -> 728 ;
729 [label="gini = 0.0\nsamples = 1\nvalue = [1, 0, 0, 0, 0, 0, 0, 0, 0, 0, 0]"] ;
728 -> 729 ;
730 [label="X[0] <= 2.5\ngini = 0.444\nsamples = 3\nvalue = [1, 2, 0, 0, 0, 0, 0, 0, 0, 0, 0]"] ;
728 -> 730 ;
731 [label="gini = 0.5\nsamples = 2\nvalue = [1, 1, 0, 0, 0, 0, 0, 0, 0, 0, 0]"] ;
730 -> 731 ;
732 [label="gini = 0.0\nsamples = 1\nvalue = [0, 1, 0, 0, 0, 0, 0, 0, 0, 0, 0]"] ;
730 -> 732 ;
733 [label="X[0] <= 2.5\ngini = 0.5\nsamples = 2\nvalue = [1, 0, 0, 0, 0, 0, 0, 1, 0, 0, 0]"] ;
727 -> 733 ;
734 [label="gini = 0.0\nsamples = 1\nvalue = [1, 0, 0, 0, 0, 0, 0, 0, 0, 0, 0]"] ;
733 -> 734 ;
735 [label="gini = 0.0\nsamples = 1\nvalue = [0, 0, 0, 0, 0, 0, 0, 1, 0, 0, 0]"] ;
733 -> 735 ;
736 [label="gini = 0.0\nsamples = 1\nvalue = [0, 0, 0, 0, 0, 0, 1, 0, 0, 0, 0]"] ;
726 -> 736 ;
737 [label="X[0] <= 2.5\ngini = 0.37\nsamples = 9\nvalue = [1, 7, 0, 0, 0, 0, 0, 0, 1, 0, 0]"] ;
725 -> 737 ;
738 [label="X[2] <= 3.5\ngini = 0.444\nsamples = 3\nvalue = [1, 2, 0, 0, 0, 0, 0, 0, 0, 0, 0]"] ;
737 -> 738 ;
739 [label="gini = 0.0\nsamples = 2\nvalue = [0, 2, 0, 0, 0, 0, 0, 0, 0, 0, 0]"] ;
738 -> 739 ;
740 [label="gini = 0.0\nsamples = 1\nvalue = [1, 0, 0, 0, 0, 0, 0, 0, 0, 0, 0]"] ;
738 -> 740 ;
741 [label="X[3] <= 3.5\ngini = 0.278\nsamples = 6\nvalue = [0, 5, 0, 0, 0, 0, 0, 0, 1, 0, 0]"] ;
737 -> 741 ;
742 [label="gini = 0.0\nsamples = 4\nvalue = [0, 4, 0, 0, 0, 0, 0, 0, 0, 0, 0]"] ;
741 -> 742 ;
743 [label="X[2] <= 2.0\ngini = 0.5\nsamples = 2\nvalue = [0, 1, 0, 0, 0, 0, 0, 0, 1, 0, 0]"] ;
741 -> 743 ;
744 [label="gini = 0.0\nsamples = 1\nvalue = [0, 0, 0, 0, 0, 0, 0, 0, 1, 0, 0]"] ;
743 -> 744 ;
745 [label="gini = 0.0\nsamples = 1\nvalue = [0, 1, 0, 0, 0, 0, 0, 0, 0, 0, 0]"] ;
743 -> 745 ;
746 [label="X[2] <= 2.5\ngini = 0.5\nsamples = 2\nvalue = [1, 0, 0, 0, 0, 0, 0, 1, 0, 0, 0]"] ;
722 -> 746 ;
747 [label="gini = 0.0\nsamples = 1\nvalue = [0, 0, 0, 0, 0, 0, 0, 1, 0, 0, 0]"] ;
746 -> 747 ;
748 [label="gini = 0.0\nsamples = 1\nvalue = [1, 0, 0, 0, 0, 0, 0, 0, 0, 0, 0]"] ;
746 -> 748 ;
749 [label="X[2] <= 4.5\ngini = 0.8\nsamples = 103\nvalue = [27, 33, 2, 4, 5, 8, 3, 6, 12, 1, 2]"] ;
721 -> 749 ;
750 [label="X[2] <= 2.5\ngini = 0.8\nsamples = 80\nvalue = [24, 23, 2, 2, 5, 8, 2, 5, 7, 1, 1]"] ;
749 -> 750 ;
751 [label="X[4] <= 2.5\ngini = 0.79\nsamples = 68\nvalue = [18, 23, 2, 1, 4, 5, 2, 4, 7, 1, 1]"] ;
750 -> 751 ;
752 [label="X[3] <= 1.5\ngini = 0.773\nsamples = 60\nvalue = [18, 20, 0, 1, 3, 5, 2, 4, 6, 0, 1]"] ;
751 -> 752 ;
753 [label="X[4] <= 0.5\ngini = 0.765\nsamples = 19\nvalue = [3, 7, 0, 0, 1, 1, 0, 3, 4, 0, 0]"] ;
752 -> 753 ;
754 [label="X[0] <= 4.5\ngini = 0.611\nsamples = 6\nvalue = [3, 2, 0, 0, 0, 0, 0, 0, 1, 0, 0]"] ;
753 -> 754 ;
755 [label="gini = 0.0\nsamples = 1\nvalue = [0, 1, 0, 0, 0, 0, 0, 0, 0, 0, 0]"] ;
754 -> 755 ;
756 [label="X[0] <= 6.0\ngini = 0.56\nsamples = 5\nvalue = [3, 1, 0, 0, 0, 0, 0, 0, 1, 0, 0]"] ;
754 -> 756 ;
757 [label="X[2] <= 0.5\ngini = 0.444\nsamples = 3\nvalue = [2, 1, 0, 0, 0, 0, 0, 0, 0, 0, 0]"] ;
756 -> 757 ;
758 [label="gini = 0.5\nsamples = 2\nvalue = [1, 1, 0, 0, 0, 0, 0, 0, 0, 0, 0]"] ;
757 -> 758 ;
759 [label="gini = 0.0\nsamples = 1\nvalue = [1, 0, 0, 0, 0, 0, 0, 0, 0, 0, 0]"] ;
757 -> 759 ;
760 [label="gini = 0.5\nsamples = 2\nvalue = [1, 0, 0, 0, 0, 0, 0, 0, 1, 0, 0]"] ;
756 -> 760 ;
761 [label="X[2] <= 0.5\ngini = 0.734\nsamples = 13\nvalue = [0, 5, 0, 0, 1, 1, 0, 3, 3, 0, 0]"] ;
753 -> 761 ;
762 [label="X[4] <= 1.5\ngini = 0.625\nsamples = 4\nvalue = [0, 1, 0, 0, 1, 0, 0, 2, 0, 0, 0]"] ;
761 -> 762 ;
763 [label="X[0] <= 5.5\ngini = 0.444\nsamples = 3\nvalue = [0, 0, 0, 0, 1, 0, 0, 2, 0, 0, 0]"] ;
762 -> 763 ;
764 [label="gini = 0.5\nsamples = 2\nvalue = [0, 0, 0, 0, 1, 0, 0, 1, 0, 0, 0]"] ;
763 -> 764 ;
765 [label="gini = 0.0\nsamples = 1\nvalue = [0, 0, 0, 0, 0, 0, 0, 1, 0, 0, 0]"] ;
763 -> 765 ;
766 [label="gini = 0.0\nsamples = 1\nvalue = [0, 1, 0, 0, 0, 0, 0, 0, 0, 0, 0]"] ;
762 -> 766 ;
767 [label="X[2] <= 1.5\ngini = 0.667\nsamples = 9\nvalue = [0, 4, 0, 0, 0, 1, 0, 1, 3, 0, 0]"] ;
761 -> 767 ;
768 [label="X[0] <= 6.5\ngini = 0.5\nsamples = 6\nvalue = [0, 3, 0, 0, 0, 0, 0, 0, 3, 0, 0]"] ;
767 -> 768 ;
769 [label="X[0] <= 5.5\ngini = 0.48\nsamples = 5\nvalue = [0, 3, 0, 0, 0, 0, 0, 0, 2, 0, 0]"] ;
768 -> 769 ;
770 [label="X[0] <= 4.5\ngini = 0.444\nsamples = 3\nvalue = [0, 1, 0, 0, 0, 0, 0, 0, 2, 0, 0]"] ;
769 -> 770 ;
771 [label="gini = 0.5\nsamples = 2\nvalue = [0, 1, 0, 0, 0, 0, 0, 0, 1, 0, 0]"] ;
770 -> 771 ;
772 [label="gini = 0.0\nsamples = 1\nvalue = [0, 0, 0, 0, 0, 0, 0, 0, 1, 0, 0]"] ;
770 -> 772 ;
773 [label="gini = 0.0\nsamples = 2\nvalue = [0, 2, 0, 0, 0, 0, 0, 0, 0, 0, 0]"] ;
769 -> 773 ;
774 [label="gini = 0.0\nsamples = 1\nvalue = [0, 0, 0, 0, 0, 0, 0, 0, 1, 0, 0]"] ;
768 -> 774 ;
775 [label="X[4] <= 1.5\ngini = 0.667\nsamples = 3\nvalue = [0, 1, 0, 0, 0, 1, 0, 1, 0, 0, 0]"] ;
767 -> 775 ;
776 [label="X[0] <= 6.5\ngini = 0.5\nsamples = 2\nvalue = [0, 1, 0, 0, 0, 1, 0, 0, 0, 0, 0]"] ;
775 -> 776 ;
777 [label="gini = 0.0\nsamples = 1\nvalue = [0, 1, 0, 0, 0, 0, 0, 0, 0, 0, 0]"] ;
776 -> 777 ;
778 [label="gini = 0.0\nsamples = 1\nvalue = [0, 0, 0, 0, 0, 1, 0, 0, 0, 0, 0]"] ;
776 -> 778 ;
779 [label="gini = 0.0\nsamples = 1\nvalue = [0, 0, 0, 0, 0, 0, 0, 1, 0, 0, 0]"] ;
775 -> 779 ;
780 [label="X[0] <= 5.5\ngini = 0.747\nsamples = 41\nvalue = [15, 13, 0, 1, 2, 4, 2, 1, 2, 0, 1]"] ;
752 -> 780 ;
781 [label="X[3] <= 2.5\ngini = 0.675\nsamples = 20\nvalue = [10, 5, 0, 0, 1, 1, 1, 1, 1, 0, 0]"] ;
780 -> 781 ;
782 [label="X[4] <= 0.5\ngini = 0.625\nsamples = 4\nvalue = [1, 2, 0, 0, 0, 0, 1, 0, 0, 0, 0]"] ;
781 -> 782 ;
783 [label="X[2] <= 0.5\ngini = 0.5\nsamples = 2\nvalue = [1, 0, 0, 0, 0, 0, 1, 0, 0, 0, 0]"] ;
782 -> 783 ;
784 [label="gini = 0.0\nsamples = 1\nvalue = [1, 0, 0, 0, 0, 0, 0, 0, 0, 0, 0]"] ;
783 -> 784 ;
785 [label="gini = 0.0\nsamples = 1\nvalue = [0, 0, 0, 0, 0, 0, 1, 0, 0, 0, 0]"] ;
783 -> 785 ;
786 [label="gini = 0.0\nsamples = 2\nvalue = [0, 2, 0, 0, 0, 0, 0, 0, 0, 0, 0]"] ;
782 -> 786 ;
787 [label="X[0] <= 4.5\ngini = 0.633\nsamples = 16\nvalue = [9, 3, 0, 0, 1, 1, 0, 1, 1, 0, 0]"] ;
781 -> 787 ;
788 [label="X[3] <= 3.5\ngini = 0.667\nsamples = 6\nvalue = [3, 0, 0, 0, 1, 1, 0, 1, 0, 0, 0]"] ;
787 -> 788 ;
789 [label="gini = 0.5\nsamples = 2\nvalue = [0, 0, 0, 0, 1, 0, 0, 1, 0, 0, 0]"] ;
788 -> 789 ;
790 [label="X[4] <= 1.5\ngini = 0.375\nsamples = 4\nvalue = [3, 0, 0, 0, 0, 1, 0, 0, 0, 0, 0]"] ;
788 -> 790 ;
791 [label="gini = 0.0\nsamples = 3\nvalue = [3, 0, 0, 0, 0, 0, 0, 0, 0, 0, 0]"] ;
790 -> 791 ;
792 [label="gini = 0.0\nsamples = 1\nvalue = [0, 0, 0, 0, 0, 1, 0, 0, 0, 0, 0]"] ;
790 -> 792 ;
793 [label="X[2] <= 1.5\ngini = 0.54\nsamples = 10\nvalue = [6, 3, 0, 0, 0, 0, 0, 0, 1, 0, 0]"] ;
787 -> 793 ;
794 [label="X[4] <= 1.5\ngini = 0.594\nsamples = 8\nvalue = [4, 3, 0, 0, 0, 0, 0, 0, 1, 0, 0]"] ;
793 -> 794 ;
795 [label="X[2] <= 0.5\ngini = 0.612\nsamples = 7\nvalue = [3, 3, 0, 0, 0, 0, 0, 0, 1, 0, 0]"] ;
794 -> 795 ;
796 [label="gini = 0.444\nsamples = 3\nvalue = [2, 1, 0, 0, 0, 0, 0, 0, 0, 0, 0]"] ;
795 -> 796 ;
797 [label="X[3] <= 4.0\ngini = 0.625\nsamples = 4\nvalue = [1, 2, 0, 0, 0, 0, 0, 0, 1, 0, 0]"] ;
795 -> 797 ;
798 [label="gini = 0.5\nsamples = 2\nvalue = [1, 1, 0, 0, 0, 0, 0, 0, 0, 0, 0]"] ;
797 -> 798 ;
799 [label="gini = 0.5\nsamples = 2\nvalue = [0, 1, 0, 0, 0, 0, 0, 0, 1, 0, 0]"] ;
797 -> 799 ;
800 [label="gini = 0.0\nsamples = 1\nvalue = [1, 0, 0, 0, 0, 0, 0, 0, 0, 0, 0]"] ;
794 -> 800 ;
801 [label="gini = 0.0\nsamples = 2\nvalue = [2, 0, 0, 0, 0, 0, 0, 0, 0, 0, 0]"] ;
793 -> 801 ;
802 [label="X[2] <= 0.5\ngini = 0.766\nsamples = 21\nvalue = [5, 8, 0, 1, 1, 3, 1, 0, 1, 0, 1]"] ;
780 -> 802 ;
803 [label="X[3] <= 3.5\ngini = 0.667\nsamples = 9\nvalue = [4, 3, 0, 0, 0, 0, 0, 0, 1, 0, 1]"] ;
802 -> 803 ;
804 [label="X[3] <= 2.5\ngini = 0.375\nsamples = 4\nvalue = [3, 1, 0, 0, 0, 0, 0, 0, 0, 0, 0]"] ;
803 -> 804 ;
805 [label="gini = 0.0\nsamples = 1\nvalue = [1, 0, 0, 0, 0, 0, 0, 0, 0, 0, 0]"] ;
804 -> 805 ;
806 [label="X[0] <= 6.5\ngini = 0.444\nsamples = 3\nvalue = [2, 1, 0, 0, 0, 0, 0, 0, 0, 0, 0]"] ;
804 -> 806 ;
807 [label="gini = 0.0\nsamples = 1\nvalue = [1, 0, 0, 0, 0, 0, 0, 0, 0, 0, 0]"] ;
806 -> 807 ;
808 [label="gini = 0.5\nsamples = 2\nvalue = [1, 1, 0, 0, 0, 0, 0, 0, 0, 0, 0]"] ;
806 -> 808 ;
809 [label="X[0] <= 6.5\ngini = 0.72\nsamples = 5\nvalue = [1, 2, 0, 0, 0, 0, 0, 0, 1, 0, 1]"] ;
803 -> 809 ;
810 [label="gini = 0.0\nsamples = 2\nvalue = [0, 2, 0, 0, 0, 0, 0, 0, 0, 0, 0]"] ;
809 -> 810 ;
811 [label="X[3] <= 4.5\ngini = 0.667\nsamples = 3\nvalue = [1, 0, 0, 0, 0, 0, 0, 0, 1, 0, 1]"] ;
809 -> 811 ;
812 [label="gini = 0.5\nsamples = 2\nvalue = [0, 0, 0, 0, 0, 0, 0, 0, 1, 0, 1]"] ;
811 -> 812 ;
813 [label="gini = 0.0\nsamples = 1\nvalue = [1, 0, 0, 0, 0, 0, 0, 0, 0, 0, 0]"] ;
811 -> 813 ;
814 [label="X[4] <= 1.5\ngini = 0.736\nsamples = 12\nvalue = [1, 5, 0, 1, 1, 3, 1, 0, 0, 0, 0]"] ;
802 -> 814 ;
815 [label="X[0] <= 6.5\ngini = 0.694\nsamples = 11\nvalue = [1, 5, 0, 0, 1, 3, 1, 0, 0, 0, 0]"] ;
814 -> 815 ;
816 [label="X[3] <= 4.5\ngini = 0.72\nsamples = 5\nvalue = [0, 1, 0, 0, 1, 2, 1, 0, 0, 0, 0]"] ;
815 -> 816 ;
817 [label="X[3] <= 3.5\ngini = 0.625\nsamples = 4\nvalue = [0, 1, 0, 0, 1, 2, 0, 0, 0, 0, 0]"] ;
816 -> 817 ;
818 [label="X[4] <= 0.5\ngini = 0.5\nsamples = 2\nvalue = [0, 1, 0, 0, 0, 1, 0, 0, 0, 0, 0]"] ;
817 -> 818 ;
819 [label="gini = 0.0\nsamples = 1\nvalue = [0, 1, 0, 0, 0, 0, 0, 0, 0, 0, 0]"] ;
818 -> 819 ;
820 [label="gini = 0.0\nsamples = 1\nvalue = [0, 0, 0, 0, 0, 1, 0, 0, 0, 0, 0]"] ;
818 -> 820 ;
821 [label="X[4] <= 0.5\ngini = 0.5\nsamples = 2\nvalue = [0, 0, 0, 0, 1, 1, 0, 0, 0, 0, 0]"] ;
817 -> 821 ;
822 [label="gini = 0.0\nsamples = 1\nvalue = [0, 0, 0, 0, 0, 1, 0, 0, 0, 0, 0]"] ;
821 -> 822 ;
823 [label="gini = 0.0\nsamples = 1\nvalue = [0, 0, 0, 0, 1, 0, 0, 0, 0, 0, 0]"] ;
821 -> 823 ;
824 [label="gini = 0.0\nsamples = 1\nvalue = [0, 0, 0, 0, 0, 0, 1, 0, 0, 0, 0]"] ;
816 -> 824 ;
825 [label="X[3] <= 4.5\ngini = 0.5\nsamples = 6\nvalue = [1, 4, 0, 0, 0, 1, 0, 0, 0, 0, 0]"] ;
815 -> 825 ;
826 [label="gini = 0.0\nsamples = 3\nvalue = [0, 3, 0, 0, 0, 0, 0, 0, 0, 0, 0]"] ;
825 -> 826 ;
827 [label="X[2] <= 1.5\ngini = 0.667\nsamples = 3\nvalue = [1, 1, 0, 0, 0, 1, 0, 0, 0, 0, 0]"] ;
825 -> 827 ;
828 [label="X[4] <= 0.5\ngini = 0.5\nsamples = 2\nvalue = [0, 1, 0, 0, 0, 1, 0, 0, 0, 0, 0]"] ;
827 -> 828 ;
829 [label="gini = 0.0\nsamples = 1\nvalue = [0, 1, 0, 0, 0, 0, 0, 0, 0, 0, 0]"] ;
828 -> 829 ;
830 [label="gini = 0.0\nsamples = 1\nvalue = [0, 0, 0, 0, 0, 1, 0, 0, 0, 0, 0]"] ;
828 -> 830 ;
831 [label="gini = 0.0\nsamples = 1\nvalue = [1, 0, 0, 0, 0, 0, 0, 0, 0, 0, 0]"] ;
827 -> 831 ;
832 [label="gini = 0.0\nsamples = 1\nvalue = [0, 0, 0, 1, 0, 0, 0, 0, 0, 0, 0]"] ;
814 -> 832 ;
833 [label="X[0] <= 4.5\ngini = 0.75\nsamples = 8\nvalue = [0, 3, 2, 0, 1, 0, 0, 0, 1, 1, 0]"] ;
751 -> 833 ;
834 [label="X[3] <= 1.5\ngini = 0.667\nsamples = 3\nvalue = [0, 0, 1, 0, 1, 0, 0, 0, 1, 0, 0]"] ;
833 -> 834 ;
835 [label="gini = 0.0\nsamples = 1\nvalue = [0, 0, 1, 0, 0, 0, 0, 0, 0, 0, 0]"] ;
834 -> 835 ;
836 [label="X[2] <= 0.5\ngini = 0.5\nsamples = 2\nvalue = [0, 0, 0, 0, 1, 0, 0, 0, 1, 0, 0]"] ;
834 -> 836 ;
837 [label="gini = 0.0\nsamples = 1\nvalue = [0, 0, 0, 0, 0, 0, 0, 0, 1, 0, 0]"] ;
836 -> 837 ;
838 [label="gini = 0.0\nsamples = 1\nvalue = [0, 0, 0, 0, 1, 0, 0, 0, 0, 0, 0]"] ;
836 -> 838 ;
839 [label="X[2] <= 1.5\ngini = 0.56\nsamples = 5\nvalue = [0, 3, 1, 0, 0, 0, 0, 0, 0, 1, 0]"] ;
833 -> 839 ;
840 [label="X[2] <= 0.5\ngini = 0.375\nsamples = 4\nvalue = [0, 3, 1, 0, 0, 0, 0, 0, 0, 0, 0]"] ;
839 -> 840 ;
841 [label="X[0] <= 5.5\ngini = 0.5\nsamples = 2\nvalue = [0, 1, 1, 0, 0, 0, 0, 0, 0, 0, 0]"] ;
840 -> 841 ;
842 [label="gini = 0.0\nsamples = 1\nvalue = [0, 1, 0, 0, 0, 0, 0, 0, 0, 0, 0]"] ;
841 -> 842 ;
843 [label="gini = 0.0\nsamples = 1\nvalue = [0, 0, 1, 0, 0, 0, 0, 0, 0, 0, 0]"] ;
841 -> 843 ;
844 [label="gini = 0.0\nsamples = 2\nvalue = [0, 2, 0, 0, 0, 0, 0, 0, 0, 0, 0]"] ;
840 -> 844 ;
845 [label="gini = 0.0\nsamples = 1\nvalue = [0, 0, 0, 0, 0, 0, 0, 0, 0, 1, 0]"] ;
839 -> 845 ;
846 [label="X[4] <= 1.5\ngini = 0.667\nsamples = 12\nvalue = [6, 0, 0, 1, 1, 3, 0, 1, 0, 0, 0]"] ;
750 -> 846 ;
847 [label="X[2] <= 3.5\ngini = 0.642\nsamples = 9\nvalue = [5, 0, 0, 1, 1, 1, 0, 1, 0, 0, 0]"] ;
846 -> 847 ;
848 [label="X[4] <= 0.5\ngini = 0.5\nsamples = 2\nvalue = [1, 0, 0, 0, 0, 0, 0, 1, 0, 0, 0]"] ;
847 -> 848 ;
849 [label="gini = 0.0\nsamples = 1\nvalue = [1, 0, 0, 0, 0, 0, 0, 0, 0, 0, 0]"] ;
848 -> 849 ;
850 [label="gini = 0.0\nsamples = 1\nvalue = [0, 0, 0, 0, 0, 0, 0, 1, 0, 0, 0]"] ;
848 -> 850 ;
851 [label="X[3] <= 3.0\ngini = 0.612\nsamples = 7\nvalue = [4, 0, 0, 1, 1, 1, 0, 0, 0, 0, 0]"] ;
847 -> 851 ;
852 [label="gini = 0.0\nsamples = 2\nvalue = [2, 0, 0, 0, 0, 0, 0, 0, 0, 0, 0]"] ;
851 -> 852 ;
853 [label="X[4] <= 0.5\ngini = 0.72\nsamples = 5\nvalue = [2, 0, 0, 1, 1, 1, 0, 0, 0, 0, 0]"] ;
851 -> 853 ;
854 [label="X[3] <= 4.5\ngini = 0.5\nsamples = 2\nvalue = [1, 0, 0, 0, 1, 0, 0, 0, 0, 0, 0]"] ;
853 -> 854 ;
855 [label="gini = 0.0\nsamples = 1\nvalue = [1, 0, 0, 0, 0, 0, 0, 0, 0, 0, 0]"] ;
854 -> 855 ;
856 [label="gini = 0.0\nsamples = 1\nvalue = [0, 0, 0, 0, 1, 0, 0, 0, 0, 0, 0]"] ;
854 -> 856 ;
857 [label="X[3] <= 4.5\ngini = 0.667\nsamples = 3\nvalue = [1, 0, 0, 1, 0, 1, 0, 0, 0, 0, 0]"] ;
853 -> 857 ;
858 [label="gini = 0.5\nsamples = 2\nvalue = [0, 0, 0, 1, 0, 1, 0, 0, 0, 0, 0]"] ;
857 -> 858 ;
859 [label="gini = 0.0\nsamples = 1\nvalue = [1, 0, 0, 0, 0, 0, 0, 0, 0, 0, 0]"] ;
857 -> 859 ;
860 [label="X[3] <= 4.5\ngini = 0.444\nsamples = 3\nvalue = [1, 0, 0, 0, 0, 2, 0, 0, 0, 0, 0]"] ;
846 -> 860 ;
861 [label="gini = 0.0\nsamples = 2\nvalue = [0, 0, 0, 0, 0, 2, 0, 0, 0, 0, 0]"] ;
860 -> 861 ;
862 [label="gini = 0.0\nsamples = 1\nvalue = [1, 0, 0, 0, 0, 0, 0, 0, 0, 0, 0]"] ;
860 -> 862 ;
863 [label="X[2] <= 5.5\ngini = 0.733\nsamples = 23\nvalue = [3, 10, 0, 2, 0, 0, 1, 1, 5, 0, 1]"] ;
749 -> 863 ;
864 [label="X[4] <= 2.0\ngini = 0.48\nsamples = 5\nvalue = [0, 3, 0, 2, 0, 0, 0, 0, 0, 0, 0]"] ;
863 -> 864 ;
865 [label="X[3] <= 4.5\ngini = 0.375\nsamples = 4\nvalue = [0, 3, 0, 1, 0, 0, 0, 0, 0, 0, 0]"] ;
864 -> 865 ;
866 [label="gini = 0.0\nsamples = 2\nvalue = [0, 2, 0, 0, 0, 0, 0, 0, 0, 0, 0]"] ;
865 -> 866 ;
867 [label="X[0] <= 5.0\ngini = 0.5\nsamples = 2\nvalue = [0, 1, 0, 1, 0, 0, 0, 0, 0, 0, 0]"] ;
865 -> 867 ;
868 [label="gini = 0.0\nsamples = 1\nvalue = [0, 1, 0, 0, 0, 0, 0, 0, 0, 0, 0]"] ;
867 -> 868 ;
869 [label="gini = 0.0\nsamples = 1\nvalue = [0, 0, 0, 1, 0, 0, 0, 0, 0, 0, 0]"] ;
867 -> 869 ;
870 [label="gini = 0.0\nsamples = 1\nvalue = [0, 0, 0, 1, 0, 0, 0, 0, 0, 0, 0]"] ;
864 -> 870 ;
871 [label="X[4] <= 0.5\ngini = 0.735\nsamples = 18\nvalue = [3, 7, 0, 0, 0, 0, 1, 1, 5, 0, 1]"] ;
863 -> 871 ;
872 [label="gini = 0.0\nsamples = 2\nvalue = [0, 0, 0, 0, 0, 0, 0, 0, 2, 0, 0]"] ;
871 -> 872 ;
873 [label="X[3] <= 4.5\ngini = 0.727\nsamples = 16\nvalue = [3, 7, 0, 0, 0, 0, 1, 1, 3, 0, 1]"] ;
871 -> 873 ;
874 [label="X[2] <= 7.5\ngini = 0.765\nsamples = 14\nvalue = [3, 5, 0, 0, 0, 0, 1, 1, 3, 0, 1]"] ;
873 -> 874 ;
875 [label="X[4] <= 2.5\ngini = 0.694\nsamples = 7\nvalue = [2, 3, 0, 0, 0, 0, 1, 1, 0, 0, 0]"] ;
874 -> 875 ;
876 [label="X[4] <= 1.5\ngini = 0.72\nsamples = 5\nvalue = [2, 1, 0, 0, 0, 0, 1, 1, 0, 0, 0]"] ;
875 -> 876 ;
877 [label="X[0] <= 6.0\ngini = 0.444\nsamples = 3\nvalue = [2, 1, 0, 0, 0, 0, 0, 0, 0, 0, 0]"] ;
876 -> 877 ;
878 [label="X[3] <= 2.5\ngini = 0.5\nsamples = 2\nvalue = [1, 1, 0, 0, 0, 0, 0, 0, 0, 0, 0]"] ;
877 -> 878 ;
879 [label="gini = 0.0\nsamples = 1\nvalue = [0, 1, 0, 0, 0, 0, 0, 0, 0, 0, 0]"] ;
878 -> 879 ;
880 [label="gini = 0.0\nsamples = 1\nvalue = [1, 0, 0, 0, 0, 0, 0, 0, 0, 0, 0]"] ;
878 -> 880 ;
881 [label="gini = 0.0\nsamples = 1\nvalue = [1, 0, 0, 0, 0, 0, 0, 0, 0, 0, 0]"] ;
877 -> 881 ;
882 [label="X[3] <= 2.0\ngini = 0.5\nsamples = 2\nvalue = [0, 0, 0, 0, 0, 0, 1, 1, 0, 0, 0]"] ;
876 -> 882 ;
883 [label="gini = 0.0\nsamples = 1\nvalue = [0, 0, 0, 0, 0, 0, 0, 1, 0, 0, 0]"] ;
882 -> 883 ;
884 [label="gini = 0.0\nsamples = 1\nvalue = [0, 0, 0, 0, 0, 0, 1, 0, 0, 0, 0]"] ;
882 -> 884 ;
885 [label="gini = 0.0\nsamples = 2\nvalue = [0, 2, 0, 0, 0, 0, 0, 0, 0, 0, 0]"] ;
875 -> 885 ;
886 [label="X[0] <= 4.5\ngini = 0.694\nsamples = 7\nvalue = [1, 2, 0, 0, 0, 0, 0, 0, 3, 0, 1]"] ;
874 -> 886 ;
887 [label="X[3] <= 3.0\ngini = 0.444\nsamples = 3\nvalue = [1, 0, 0, 0, 0, 0, 0, 0, 2, 0, 0]"] ;
886 -> 887 ;
888 [label="gini = 0.0\nsamples = 1\nvalue = [0, 0, 0, 0, 0, 0, 0, 0, 1, 0, 0]"] ;
887 -> 888 ;
889 [label="X[4] <= 2.5\ngini = 0.5\nsamples = 2\nvalue = [1, 0, 0, 0, 0, 0, 0, 0, 1, 0, 0]"] ;
887 -> 889 ;
890 [label="gini = 0.0\nsamples = 1\nvalue = [0, 0, 0, 0, 0, 0, 0, 0, 1, 0, 0]"] ;
889 -> 890 ;
891 [label="gini = 0.0\nsamples = 1\nvalue = [1, 0, 0, 0, 0, 0, 0, 0, 0, 0, 0]"] ;
889 -> 891 ;
892 [label="X[3] <= 2.5\ngini = 0.625\nsamples = 4\nvalue = [0, 2, 0, 0, 0, 0, 0, 0, 1, 0, 1]"] ;
886 -> 892 ;
893 [label="X[4] <= 2.5\ngini = 0.5\nsamples = 2\nvalue = [0, 0, 0, 0, 0, 0, 0, 0, 1, 0, 1]"] ;
892 -> 893 ;
894 [label="gini = 0.0\nsamples = 1\nvalue = [0, 0, 0, 0, 0, 0, 0, 0, 1, 0, 0]"] ;
893 -> 894 ;
895 [label="gini = 0.0\nsamples = 1\nvalue = [0, 0, 0, 0, 0, 0, 0, 0, 0, 0, 1]"] ;
893 -> 895 ;
896 [label="gini = 0.0\nsamples = 2\nvalue = [0, 2, 0, 0, 0, 0, 0, 0, 0, 0, 0]"] ;
892 -> 896 ;
897 [label="gini = 0.0\nsamples = 2\nvalue = [0, 2, 0, 0, 0, 0, 0, 0, 0, 0, 0]"] ;
873 -> 897 ;
898 [label="X[2] <= 2.5\ngini = 0.826\nsamples = 66\nvalue = [19, 14, 0, 6, 2, 8, 8, 4, 4, 0, 1]"] ;
720 -> 898 ;
899 [label="X[0] <= 5.5\ngini = 0.861\nsamples = 29\nvalue = [6, 2, 0, 3, 2, 5, 5, 2, 3, 0, 1]"] ;
898 -> 899 ;
900 [label="X[1] <= 2.5\ngini = 0.868\nsamples = 22\nvalue = [2, 2, 0, 2, 2, 3, 5, 2, 3, 0, 1]"] ;
899 -> 900 ;
901 [label="X[4] <= 1.5\ngini = 0.781\nsamples = 13\nvalue = [2, 1, 0, 2, 0, 1, 5, 1, 1, 0, 0]"] ;
900 -> 901 ;
902 [label="X[2] <= 0.5\ngini = 0.711\nsamples = 11\nvalue = [2, 1, 0, 2, 0, 0, 5, 0, 1, 0, 0]"] ;
901 -> 902 ;
903 [label="X[3] <= 1.5\ngini = 0.375\nsamples = 4\nvalue = [0, 1, 0, 0, 0, 0, 3, 0, 0, 0, 0]"] ;
902 -> 903 ;
904 [label="X[0] <= 4.5\ngini = 0.5\nsamples = 2\nvalue = [0, 1, 0, 0, 0, 0, 1, 0, 0, 0, 0]"] ;
903 -> 904 ;
905 [label="gini = 0.0\nsamples = 1\nvalue = [0, 1, 0, 0, 0, 0, 0, 0, 0, 0, 0]"] ;
904 -> 905 ;
906 [label="gini = 0.0\nsamples = 1\nvalue = [0, 0, 0, 0, 0, 0, 1, 0, 0, 0, 0]"] ;
904 -> 906 ;
907 [label="gini = 0.0\nsamples = 2\nvalue = [0, 0, 0, 0, 0, 0, 2, 0, 0, 0, 0]"] ;
903 -> 907 ;
908 [label="X[4] <= 0.5\ngini = 0.735\nsamples = 7\nvalue = [2, 0, 0, 2, 0, 0, 2, 0, 1, 0, 0]"] ;
902 -> 908 ;
909 [label="gini = 0.0\nsamples = 2\nvalue = [0, 0, 0, 0, 0, 0, 2, 0, 0, 0, 0]"] ;
908 -> 909 ;
910 [label="X[0] <= 2.5\ngini = 0.64\nsamples = 5\nvalue = [2, 0, 0, 2, 0, 0, 0, 0, 1, 0, 0]"] ;
908 -> 910 ;
911 [label="gini = 0.0\nsamples = 2\nvalue = [2, 0, 0, 0, 0, 0, 0, 0, 0, 0, 0]"] ;
910 -> 911 ;
912 [label="X[3] <= 2.5\ngini = 0.444\nsamples = 3\nvalue = [0, 0, 0, 2, 0, 0, 0, 0, 1, 0, 0]"] ;
910 -> 912 ;
913 [label="gini = 0.0\nsamples = 2\nvalue = [0, 0, 0, 2, 0, 0, 0, 0, 0, 0, 0]"] ;
912 -> 913 ;
914 [label="gini = 0.0\nsamples = 1\nvalue = [0, 0, 0, 0, 0, 0, 0, 0, 1, 0, 0]"] ;
912 -> 914 ;
915 [label="X[0] <= 3.0\ngini = 0.5\nsamples = 2\nvalue = [0, 0, 0, 0, 0, 1, 0, 1, 0, 0, 0]"] ;
901 -> 915 ;
916 [label="gini = 0.0\nsamples = 1\nvalue = [0, 0, 0, 0, 0, 0, 0, 1, 0, 0, 0]"] ;
915 -> 916 ;
917 [label="gini = 0.0\nsamples = 1\nvalue = [0, 0, 0, 0, 0, 1, 0, 0, 0, 0, 0]"] ;
915 -> 917 ;
918 [label="X[0] <= 3.5\ngini = 0.815\nsamples = 9\nvalue = [0, 1, 0, 0, 2, 2, 0, 1, 2, 0, 1]"] ;
900 -> 918 ;
919 [label="gini = 0.0\nsamples = 2\nvalue = [0, 0, 0, 0, 0, 0, 0, 0, 2, 0, 0]"] ;
918 -> 919 ;
920 [label="X[2] <= 0.5\ngini = 0.776\nsamples = 7\nvalue = [0, 1, 0, 0, 2, 2, 0, 1, 0, 0, 1]"] ;
918 -> 920 ;
921 [label="X[0] <= 4.5\ngini = 0.444\nsamples = 3\nvalue = [0, 1, 0, 0, 0, 2, 0, 0, 0, 0, 0]"] ;
920 -> 921 ;
922 [label="gini = 0.0\nsamples = 1\nvalue = [0, 1, 0, 0, 0, 0, 0, 0, 0, 0, 0]"] ;
921 -> 922 ;
923 [label="gini = 0.0\nsamples = 2\nvalue = [0, 0, 0, 0, 0, 2, 0, 0, 0, 0, 0]"] ;
921 -> 923 ;
924 [label="X[3] <= 3.5\ngini = 0.625\nsamples = 4\nvalue = [0, 0, 0, 0, 2, 0, 0, 1, 0, 0, 1]"] ;
920 -> 924 ;
925 [label="gini = 0.0\nsamples = 1\nvalue = [0, 0, 0, 0, 0, 0, 0, 0, 0, 0, 1]"] ;
924 -> 925 ;
926 [label="X[0] <= 4.5\ngini = 0.444\nsamples = 3\nvalue = [0, 0, 0, 0, 2, 0, 0, 1, 0, 0, 0]"] ;
924 -> 926 ;
927 [label="gini = 0.0\nsamples = 1\nvalue = [0, 0, 0, 0, 1, 0, 0, 0, 0, 0, 0]"] ;
926 -> 927 ;
928 [label="X[4] <= 1.0\ngini = 0.5\nsamples = 2\nvalue = [0, 0, 0, 0, 1, 0, 0, 1, 0, 0, 0]"] ;
926 -> 928 ;
929 [label="gini = 0.0\nsamples = 1\nvalue = [0, 0, 0, 0, 1, 0, 0, 0, 0, 0, 0]"] ;
928 -> 929 ;
930 [label="gini = 0.0\nsamples = 1\nvalue = [0, 0, 0, 0, 0, 0, 0, 1, 0, 0, 0]"] ;
928 -> 930 ;
931 [label="X[2] <= 1.5\ngini = 0.571\nsamples = 7\nvalue = [4, 0, 0, 1, 0, 2, 0, 0, 0, 0, 0]"] ;
899 -> 931 ;
932 [label="X[3] <= 2.5\ngini = 0.444\nsamples = 6\nvalue = [4, 0, 0, 0, 0, 2, 0, 0, 0, 0, 0]"] ;
931 -> 932 ;
933 [label="gini = 0.0\nsamples = 2\nvalue = [2, 0, 0, 0, 0, 0, 0, 0, 0, 0, 0]"] ;
932 -> 933 ;
934 [label="X[2] <= 0.5\ngini = 0.5\nsamples = 4\nvalue = [2, 0, 0, 0, 0, 2, 0, 0, 0, 0, 0]"] ;
932 -> 934 ;
935 [label="gini = 0.0\nsamples = 1\nvalue = [0, 0, 0, 0, 0, 1, 0, 0, 0, 0, 0]"] ;
934 -> 935 ;
936 [label="X[0] <= 6.5\ngini = 0.444\nsamples = 3\nvalue = [2, 0, 0, 0, 0, 1, 0, 0, 0, 0, 0]"] ;
934 -> 936 ;
937 [label="gini = 0.0\nsamples = 2\nvalue = [2, 0, 0, 0, 0, 0, 0, 0, 0, 0, 0]"] ;
936 -> 937 ;
938 [label="gini = 0.0\nsamples = 1\nvalue = [0, 0, 0, 0, 0, 1, 0, 0, 0, 0, 0]"] ;
936 -> 938 ;
939 [label="gini = 0.0\nsamples = 1\nvalue = [0, 0, 0, 1, 0, 0, 0, 0, 0, 0, 0]"] ;
931 -> 939 ;
940 [label="X[4] <= 2.5\ngini = 0.748\nsamples = 37\nvalue = [13, 12, 0, 3, 0, 3, 3, 2, 1, 0, 0]"] ;
898 -> 940 ;
941 [label="X[2] <= 6.5\ngini = 0.744\nsamples = 30\nvalue = [8, 12, 0, 3, 0, 2, 2, 2, 1, 0, 0]"] ;
940 -> 941 ;
942 [label="X[4] <= 0.5\ngini = 0.778\nsamples = 26\nvalue = [8, 8, 0, 3, 0, 2, 2, 2, 1, 0, 0]"] ;
941 -> 942 ;
943 [label="X[1] <= 2.5\ngini = 0.64\nsamples = 5\nvalue = [0, 2, 0, 1, 0, 0, 2, 0, 0, 0, 0]"] ;
942 -> 943 ;
944 [label="X[0] <= 4.5\ngini = 0.444\nsamples = 3\nvalue = [0, 0, 0, 1, 0, 0, 2, 0, 0, 0, 0]"] ;
943 -> 944 ;
945 [label="gini = 0.0\nsamples = 1\nvalue = [0, 0, 0, 1, 0, 0, 0, 0, 0, 0, 0]"] ;
944 -> 945 ;
946 [label="gini = 0.0\nsamples = 2\nvalue = [0, 0, 0, 0, 0, 0, 2, 0, 0, 0, 0]"] ;
944 -> 946 ;
947 [label="gini = 0.0\nsamples = 2\nvalue = [0, 2, 0, 0, 0, 0, 0, 0, 0, 0, 0]"] ;
943 -> 947 ;
948 [label="X[3] <= 4.5\ngini = 0.744\nsamples = 21\nvalue = [8, 6, 0, 2, 0, 2, 0, 2, 1, 0, 0]"] ;
942 -> 948 ;
949 [label="X[0] <= 6.5\ngini = 0.704\nsamples = 18\nvalue = [8, 5, 0, 2, 0, 1, 0, 1, 1, 0, 0]"] ;
948 -> 949 ;
950 [label="X[3] <= 1.5\ngini = 0.722\nsamples = 13\nvalue = [6, 2, 0, 2, 0, 1, 0, 1, 1, 0, 0]"] ;
949 -> 950 ;
951 [label="X[1] <= 2.5\ngini = 0.722\nsamples = 6\nvalue = [2, 1, 0, 2, 0, 1, 0, 0, 0, 0, 0]"] ;
950 -> 951 ;
952 [label="X[4] <= 1.5\ngini = 0.444\nsamples = 3\nvalue = [2, 0, 0, 1, 0, 0, 0, 0, 0, 0, 0]"] ;
951 -> 952 ;
953 [label="gini = 0.0\nsamples = 2\nvalue = [2, 0, 0, 0, 0, 0, 0, 0, 0, 0, 0]"] ;
952 -> 953 ;
954 [label="gini = 0.0\nsamples = 1\nvalue = [0, 0, 0, 1, 0, 0, 0, 0, 0, 0, 0]"] ;
952 -> 954 ;
955 [label="X[4] <= 1.5\ngini = 0.667\nsamples = 3\nvalue = [0, 1, 0, 1, 0, 1, 0, 0, 0, 0, 0]"] ;
951 -> 955 ;
956 [label="X[2] <= 5.5\ngini = 0.5\nsamples = 2\nvalue = [0, 0, 0, 1, 0, 1, 0, 0, 0, 0, 0]"] ;
955 -> 956 ;
957 [label="gini = 0.0\nsamples = 1\nvalue = [0, 0, 0, 1, 0, 0, 0, 0, 0, 0, 0]"] ;
956 -> 957 ;
958 [label="gini = 0.0\nsamples = 1\nvalue = [0, 0, 0, 0, 0, 1, 0, 0, 0, 0, 0]"] ;
956 -> 958 ;
959 [label="gini = 0.0\nsamples = 1\nvalue = [0, 1, 0, 0, 0, 0, 0, 0, 0, 0, 0]"] ;
955 -> 959 ;
960 [label="X[1] <= 2.5\ngini = 0.612\nsamples = 7\nvalue = [4, 1, 0, 0, 0, 0, 0, 1, 1, 0, 0]"] ;
950 -> 960 ;
961 [label="X[2] <= 5.5\ngini = 0.5\nsamples = 2\nvalue = [0, 1, 0, 0, 0, 0, 0, 1, 0, 0, 0]"] ;
960 -> 961 ;
962 [label="gini = 0.0\nsamples = 1\nvalue = [0, 0, 0, 0, 0, 0, 0, 1, 0, 0, 0]"] ;
961 -> 962 ;
963 [label="gini = 0.0\nsamples = 1\nvalue = [0, 1, 0, 0, 0, 0, 0, 0, 0, 0, 0]"] ;
961 -> 963 ;
964 [label="X[2] <= 4.5\ngini = 0.32\nsamples = 5\nvalue = [4, 0, 0, 0, 0, 0, 0, 0, 1, 0, 0]"] ;
960 -> 964 ;
965 [label="X[0] <= 4.5\ngini = 0.5\nsamples = 2\nvalue = [1, 0, 0, 0, 0, 0, 0, 0, 1, 0, 0]"] ;
964 -> 965 ;
